<?xml version="1.0"?>
<opencv_storage>
<my_nb type_id="opencv-ml-bayesian">
  <var_count>150</var_count>
  <var_all>150</var_all>
  <cls_labels type_id="opencv-matrix">
    <rows>1</rows>
    <cols>2</cols>
    <dt>i</dt>
    <data>
      1 2</data></cls_labels>
  <count>
    <_ type_id="opencv-matrix">
      <rows>1</rows>
      <cols>150</cols>
      <dt>i</dt>
      <data>
        6 6 6 6 6 6 6 6 6 6 6 6 6 6 6 6 6 6 6 6 6 6 6 6 6 6 6 6 6 6 6 6
        6 6 6 6 6 6 6 6 6 6 6 6 6 6 6 6 6 6 6 6 6 6 6 6 6 6 6 6 6 6 6 6
        6 6 6 6 6 6 6 6 6 6 6 6 6 6 6 6 6 6 6 6 6 6 6 6 6 6 6 6 6 6 6 6
        6 6 6 6 6 6 6 6 6 6 6 6 6 6 6 6 6 6 6 6 6 6 6 6 6 6 6 6 6 6 6 6
        6 6 6 6 6 6 6 6 6 6 6 6 6 6 6 6 6 6 6 6 6 6</data></_>
    <_ type_id="opencv-matrix">
      <rows>1</rows>
      <cols>150</cols>
      <dt>i</dt>
      <data>
        6 6 6 6 6 6 6 6 6 6 6 6 6 6 6 6 6 6 6 6 6 6 6 6 6 6 6 6 6 6 6 6
        6 6 6 6 6 6 6 6 6 6 6 6 6 6 6 6 6 6 6 6 6 6 6 6 6 6 6 6 6 6 6 6
        6 6 6 6 6 6 6 6 6 6 6 6 6 6 6 6 6 6 6 6 6 6 6 6 6 6 6 6 6 6 6 6
        6 6 6 6 6 6 6 6 6 6 6 6 6 6 6 6 6 6 6 6 6 6 6 6 6 6 6 6 6 6 6 6
        6 6 6 6 6 6 6 6 6 6 6 6 6 6 6 6 6 6 6 6 6 6</data></_></count>
  <sum>
    <_ type_id="opencv-matrix">
      <rows>1</rows>
      <cols>150</cols>
      <dt>d</dt>
      <data>
        2.4897486437112093e-02 2.7429176843725145e-02
        1.8349773250520229e-02 1.4963842462748289e-02
        6.7564571276307106e-02 1.4285334991291165e-01
        1.5842761669773608e-02 4.0018426254391670e-02
        1.0647117366897874e-01 1.1285451240837574e-02
        1.3016195269301534e-02 4.5577151904581115e-02
        1.6793048474937677e-02 1.4914315519854426e-01
        4.3215586279984564e-02 2.9233055422082543e-02
        2.1495920955203474e-01 2.0798707404173911e-01
        1.7173755448311567e-02 5.1826034148689359e-02
        1.4594991691410542e-02 1.7717877461109310e-02
        9.1247046366333961e-03 4.8131408169865608e-02
        1.4368003467097878e-02 2.8650128631852567e-02
        9.2597196344286203e-02 1.1152416467666626e-02
        2.4864815641194582e-02 1.5552203636616468e-02
        1.7903234169352800e-02 3.7369604688137770e-02
        1.5801777713932097e-02 1.2207854870939627e-01
        9.8006082698702812e-03 6.2645377882290632e-02
        1.5214251819998026e-02 8.0698652309365571e-03
        1.6149814240634441e-02 1.3784150592982769e-02
        1.1012642877176404e-02 1.3055366463959217e-02
        1.1787337076384574e-02 2.4019018851686269e-01
        3.3023535506799817e-02 2.7639537322102115e-02
        1.1490368284285069e-02 2.8270920040085912e-02
        8.1108482554554939e-03 3.1889325880911201e-02
        6.3391217263415456e-03 7.6190475374460220e-03
        1.2503488181391731e-01 3.7302823271602392e-02
        9.6694352105259895e-03 1.6907685901969671e-02
        2.8056584973819554e-01 1.3180129230022430e-02
        1.3662453799042851e-02 8.0288817407563329e-03
        8.2616322324611247e-03 2.4577282427344471e-02
        2.4784620385617018e-02 3.2616767100989819e-02
        2.4259499972686172e-02 2.3072789423167706e-02
        7.5426944997161627e-02 8.0612061545252800e-02
        2.5396823883056641e-02 8.6389356030849740e-02
        4.2361924075521529e-02 1.4297374407760799e-02
        1.0015610139816999e-02 7.8623778856126592e-02
        3.7822845391929150e-02 1.2260226067155600e-02
        2.9467395972460508e-02 2.7734557958319783e-01
        8.7457688641734421e-03 9.6739855653140694e-02
        2.3195094632683322e-02 2.6445383206009865e-02
        1.4256390510126948e-02 9.8006082698702812e-03
        7.5679793953895569e-03 2.2831431386293843e-02
        1.4786110259592533e-02 1.4014711603522301e-02
        1.1367418337613344e-02 4.9564792250748724e-02
        1.3367346953600645e-02 1.4193984679877758e-02
        1.4193984679877758e-02 1.2842176482081413e-02
        1.6654815524816513e-02 1.0353561956435442e-02
        2.1056414465419948e-02 2.5487653329037130e-02
        1.9109415821731091e-02 9.3806894728913903e-03
        1.6180713486392051e-02 1.1070449487306178e-02
        3.1520944554358721e-02 3.2346320163924247e-02
        1.5166857105214149e-02 1.5536488685756922e-01
        5.8416124782525003e-02 1.6723632346838713e-02
        5.3414342575706542e-02 1.1849743314087391e-02
        3.2596631906926632e-02 2.1191351639572531e-02
        1.4961940236389637e-02 3.4623665007529780e-02
        2.5397790246643126e-02 1.6477682278491557e-02
        2.2278951946645975e-02 6.3310117664514109e-02
        1.3630398295936175e-01 1.2084305868484080e-02
        3.0179220455465838e-02 5.0692805089056492e-03
        2.7670009527355433e-02 2.7559469686821103e-02
        2.3567851167172194e-01 1.5084891114383936e-02
        5.4437904502265155e-02 9.0017542243003845e-03
        1.6105157323181629e-02 5.2657600550446659e-02
        8.9607706759124994e-03 6.2517415848560631e-02
        8.5737228160724044e-02 2.6407006895169616e-02
        1.3509857759345323e-02 1.0476512834429741e-02
        9.3397065065801144e-03 1.4835316047538072e-02
        1.2760209501720965e-02 9.7596252453513443e-03
        7.0424796082079411e-02 1.4717293204739690e-02
        5.5084535852074623e-02 2.4807296227663755e-02
        1.8197696772404015e-02 8.4078170475549996e-03
        8.9638859499245882e-03 1.3674022629857063e-02
        4.5943306322442368e-02 7.8251774539239705e-02</data></_>
    <_ type_id="opencv-matrix">
      <rows>1</rows>
      <cols>150</cols>
      <dt>d</dt>
      <data>
        1.5721010742709041e-02 8.2158618373796344e-02
        1.2054759310558438e-02 1.3229157077148557e-02
        9.7459377953782678e-02 1.2285310681909323e-01
        1.8203170970082283e-02 3.6612896714359522e-02
        8.2997935824096203e-02 1.3505578041076660e-02
        1.3229157077148557e-02 9.3812902166973799e-02
        9.3800756148993969e-02 8.8124345522373915e-02
        1.1743981158360839e-03 2.1747511578723788e-02
        3.8162012072280049e-01 1.7572846281109378e-01
        8.8079860433936119e-03 1.5199137572199106e-01
        7.3399883694946766e-03 1.5267175622284412e-02
        1.3505578041076660e-02 4.6257758367573842e-02
        9.6887843683362007e-03 1.7471727170050144e-01
        3.9415348874172196e-02 9.6887843683362007e-03
        2.0716170081868768e-02 1.5444589778780937e-02
        9.3951849266886711e-03 8.5315650794655085e-03
        1.5267175622284412e-02 2.6595743838697672e-03
        1.2054759310558438e-02 1.6182330902665854e-02
        1.1156782507896423e-02 6.1655901372432709e-03
        1.7339551122859120e-02 1.6762044746428728e-02
        1.4861358562484384e-02 3.8923406507819891e-02
        1.6147974878549576e-02 1.2783973873592913e-01
        3.2974857371300459e-02 2.0007060724310577e-02
        8.8079860433936119e-03 6.7464083665981889e-02
        1.0729818837717175e-02 6.9567438913509250e-02
        1.1761159868910909e-02 1.6876531532034278e-02
        1.3776832836447284e-01 1.0586762102320790e-02
        4.4574464205652475e-02 1.2331180274486542e-02
        1.6389605798758566e-01 1.6147974878549576e-02
        2.1183216711506248e-02 1.3246336486190557e-02
        4.4109152629971504e-02 9.3951849266886711e-03
        1.2918379157781601e-02 1.0142619488760829e-02
        1.5587646979838610e-02 1.6735173761844635e-02
        7.1671784942736849e-02 1.8423054344020784e-01
        8.5659224423579872e-03 1.2520404672250152e-01
        1.7623907420784235e-02 2.3802708601579070e-02
        1.3078614836558700e-02 4.0940750972367823e-02
        7.0807458832859993e-03 3.3371789380908012e-02
        1.6479908023029566e-01 3.2837940668105148e-01
        9.1015854850411415e-03 3.3533844340126961e-02
        5.6127482966985554e-03 3.0155405169352889e-02
        1.1173960985615849e-02 1.6458751866593957e-02
        1.3539935927838087e-02 4.4495951471617445e-02
        1.4144313521683216e-02 1.2896973462193273e-01
        1.4679976738989353e-02 1.9713461166247725e-02
        9.3591289478354156e-03 7.9271877184510231e-03
        1.0275983251631260e-02 1.5133811859413981e-02
        7.6335878111422062e-03 7.0463884621858597e-03
        2.3665376938879490e-02 3.8167939055711031e-03
        1.5871552983298898e-02 4.6975924633443356e-03
        1.3816356891766191e-02 1.9671168178319931e-02
        1.1747948825359344e-02 1.9554982893168926e-02
        1.2037580832839012e-02 7.1592283842619509e-02
        1.3388443630537950e-01 2.3301402747165412e-02
        7.2276342281838879e-02 1.2054759310558438e-02
        1.7641085898503661e-02 9.9823838099837303e-03
        1.3799177482724190e-02 1.8077742424793541e-02
        2.2960234899073839e-02 2.3958976380527020e-02
        8.8079860433936119e-03 1.1740229465067387e-01
        4.5642285840585828e-03 1.1450381949543953e-02
        4.7147711738944054e-03 7.3399883694946766e-03
        2.1109708771109581e-01 1.7633150564506650e-02
        6.6686295904219151e-02 2.2651035338640213e-02
        5.8244327636202797e-02 1.5560775063931942e-02
        9.1015854850411415e-03 2.1600995445623994e-02
        5.8719906955957413e-03 6.4935468835756183e-03
        2.4563803570345044e-02 5.9523033443838358e-02
        1.7215879634022713e-02 7.0463884621858597e-03
        9.1015854850411415e-03 1.2641958193853498e-02
        1.6601809067651629e-02 9.3951849266886711e-03
        6.3900604087393731e-02 1.4697155216708779e-02
        1.7987979110330343e-02 2.5440634693950415e-02
        7.0807458832859993e-03 9.1015854850411415e-03
        7.8754474408924580e-02 0. 6.0116671724244952e-02
        5.8524282736470923e-02</data></_></sum>
  <productsum>
    <_ type_id="opencv-matrix">
      <rows>150</rows>
      <cols>150</cols>
      <dt>d</dt>
      <data>
        3.3612354081918893e-04 9.3379488111455322e-05
        2.1914338807413358e-04 2.0726539176332847e-04
        2.4187451058144127e-05 2.7295440339025973e-05
        2.6927070151905666e-04 2.0519029340750148e-04
        3.1046687865219106e-04 1.5261414167747067e-04
        1.9217154082336318e-04 3.4157692665712051e-05
        1.4607547709678836e-04 1.2705913534562328e-04
        1.4692460570526165e-04 2.9051927964790524e-04
        1.2918261727738137e-04 1.2558281504047256e-04
        1.3724420251216840e-04 3.6065454529337834e-05
        1.1850394779328055e-04 2.5739268884164904e-04
        1.6035304839548403e-04 1.9505183238652420e-04
        2.1592754981157591e-04 5.6882587334730833e-05
        2.5195260286992038e-04 1.9598705369450187e-04
        2.7793374411938564e-04 2.2568206083811715e-04
        2.1581968538722865e-04 1.6629204655088659e-04
        2.5940830970156564e-04 4.8410104286715147e-04
        1.7223104470628914e-04 2.9302671050726939e-04
        2.1974306268271460e-04 1.3267366211178536e-04
        1.9238725293588277e-04 1.5081424948146238e-04
        5.3451016131828011e-05 5.5574497324441252e-05
        1.9800267455441847e-04 1.2678304501647242e-04
        1.2219784455609617e-04 9.2610695940217695e-05
        2.0192605184990442e-04 2.1848246415167444e-05
        1.4253603756267386e-04 5.7314030625538063e-05
        9.3116271333980316e-05 2.4187451058144127e-05
        6.7561255795919005e-05 2.3145372608005064e-04
        4.3696492830334888e-05 2.2399003325124234e-04
        1.9646778135166444e-04 2.3162107536012222e-04
        1.8612467824361337e-04 1.2281127847759560e-04
        4.3588632497638252e-05 2.7461002506587819e-04
        2.3357632736659161e-04 2.3493102002761224e-04
        1.2275091017850703e-04 3.5061683315285030e-04
        1.5566266220010203e-04 1.7337180842377873e-04
        8.0624832918374523e-05 5.7421893132766954e-05
        2.0175962234168267e-04 1.8814029910352997e-04
        1.4858290032720989e-04 1.1985864500132885e-05
        1.0792027325740050e-04 1.5975337378690301e-04
        2.0156208229593631e-05 1.7761877228729493e-04
        1.4455165842259046e-04 7.2084302699043385e-05
        7.8501354910029235e-05 1.7963349975702635e-04
        1.7827790747082517e-04 1.7223104470628914e-04
        8.7285129234837555e-05 7.6823967492430090e-05
        9.5131892378683136e-05 1.0078104114796815e-05
        1.7233890931542262e-04 1.6708081393485529e-04
        1.8140588293608095e-05 2.4943806982632988e-04
        2.4943806982632988e-04 2.2568206083811715e-04
        1.3076589767770097e-04 1.5452189848261244e-04
        3.0692032767799110e-04 1.6198561623089695e-04
        2.2611350290804855e-04 1.4656727928250707e-04
        2.7520969967445921e-04 1.7626228642612235e-04
        1.9738925121844109e-04 3.9219073908858693e-04
        2.5739268884164904e-04 1.4579938665401681e-04
        5.3067068695688635e-05 1.2093725529072064e-05
        5.5683252324725298e-05 1.2684252019742881e-04
        2.1292919938636998e-04 2.6273202875507309e-04
        2.0808077922357393e-04 1.1478252854066600e-04
        8.3193522000885945e-05 2.7128632237897327e-04
        2.0132639360792592e-04 6.7669116455285755e-05
        5.5890938177084650e-04 1.9407929725893253e-04
        1.0067318159731869e-04 8.9085029614147104e-05
        1.1768856033303509e-04 4.3948612536542919e-04
        2.1047015342279436e-04 2.3766793812465825e-04
        8.5486121662076316e-05 1.3076589767770097e-04
        2.0797291461444045e-04 1.5909245191026919e-05
        1.2090351385872500e-04 2.1824011536521561e-04
        3.1454296029485851e-04 1.2388988589621258e-04
        1.3861266026718791e-04 1.8410905738369676e-04
        1.3670490401640478e-04 2.0394167270982103e-04
        2.0595729356973763e-04 1.6236866925540064e-04
        2.3820991197043458e-04 2.1380406452731204e-04
        3.1007759910925588e-04 2.1745136048725877e-04
        8.2101154134279347e-05 1.3861266026718791e-04
        1.3893624331110313e-05 2.6203072472419375e-05
        2.5171958819742617e-05 3.2854444635115054e-04
        9.3379488111455322e-05 3.2093368218860403e-04
        4.7438603285604648e-05 3.1836416935325496e-05
        2.4328270887037651e-04 4.2214732553702583e-04
        3.1039311627838618e-05 2.0287262541092025e-04
        1.4393762770385861e-03 6.3370455163418659e-05
        5.6087151438855834e-05 2.0594802646946639e-04
        9.3448901127509028e-05 1.9721442575418806e-04
        7.0315607170339650e-04 9.8596095888516476e-05
        4.8838691669309659e-04 6.0606028024303945e-04
        1.9642851737831831e-04 1.7075392710773688e-04
        1.1794424946962219e-04 3.0125618375224819e-05
        1.2334849468015915e-05 3.5062446596066199e-04
        5.7914536685114049e-05 1.1436334644824813e-04
        1.3542191041669635e-03 1.5075926707918547e-05
        6.7853864005528028e-05 3.2048652307633705e-05
        2.6927695138499979e-05 2.7480189821472859e-05
        4.0606847556370245e-05 5.0725514554501503e-04
        1.3248541461660331e-05 4.7555191230731569e-05
        3.1591806310811497e-05 2.0531847406080918e-05
        1.1806083135133783e-04 1.1486290811461299e-04
        3.3488605202608109e-05 6.0268181258990523e-05
        2.5557155889063972e-05 6.5854562491057280e-04
        4.3713557778155427e-04 4.5114968664814939e-04
        1.5532772704740755e-05 6.6398477685608080e-05
        1.0964310218579908e-05 1.9424522025264783e-04
        2.7815152721016813e-05 1.2577475401729862e-04
        3.9667503230977170e-04 1.6834759685430633e-04
        4.4665994279226680e-05 9.9839453409695752e-05
        7.2947637813231285e-04 1.7817005206790561e-05
        2.4643463895419556e-05 3.0099383964097236e-05
        2.8367647403989692e-05 6.2031448956088712e-05
        1.9907923783683010e-04 4.0014032820950829e-04
        2.1556888465229122e-04 8.8927615194117149e-05
        2.6217909021943270e-04 2.9131677448354307e-04
        4.1924915955871001e-04 4.3087099116474406e-04
        1.4742281559969642e-04 3.5124693076564982e-05
        4.2407998722904564e-05 7.5966015322541153e-05
        4.8887264072777791e-04 2.8181646442809066e-05
        1.1950078424631224e-04 4.9176087784976222e-04
        2.1445539399725334e-05 2.2391890136822768e-04
        3.7778110832411763e-04 2.4180125314268003e-04
        4.4692229965984987e-05 1.3248541461660331e-05
        5.8345146680435604e-05 9.4495914706918549e-05
        5.2984877219685352e-05 1.1116012237137769e-04
        4.4235383969162779e-05 8.0796836159307401e-04
        9.4331065512973968e-05 1.9187543197257185e-05
        1.9187543197257185e-05 1.7360157950998970e-05
        4.1037460102953248e-05 4.2864844719726772e-05
        4.4261618048886675e-05 9.6684497617933443e-05
        1.4130752672203938e-04 3.1926768580870760e-05
        3.1496157624660826e-05 3.4210999823951183e-05
        4.1790486847091988e-04 8.8173477971505349e-05
        3.0125618375224819e-05 5.2540310072591038e-04
        1.4068607574830444e-04 7.7575871365284047e-05
        2.0481092070080502e-04 5.1061842326388088e-05
        1.3714852151532926e-04 4.6429262605809560e-05
        7.7963303716567858e-05 5.6644322397585156e-04
        2.5222917919662344e-04 4.1520540808984044e-05
        3.1379570938503288e-05 2.3671145355557468e-04
        5.6189283462870028e-04 3.5581539073387190e-05
        4.9307461490339169e-04 6.8526943587259611e-06
        1.0119435140164930e-04 3.3806623908353524e-05
        4.5944766718541627e-04 4.9260693711115217e-05
        2.6745897603769049e-04 4.1037460102953248e-05
        6.1664955565700146e-05 5.1253139620003844e-05
        5.0604995700081188e-05 9.2509452604357426e-04
        3.2971620537593915e-04 3.5465629095419158e-04
        2.0988693402903126e-05 1.4162234714274130e-05
        4.1494306729260148e-05 4.0702496242520916e-05
        3.6495231067031606e-05 2.2816078649161341e-05
        3.0984666917885720e-04 1.6446465957354554e-05
        2.1135106247626551e-04 1.1522940438766669e-04
        2.7479620356266998e-04 2.0988693402903126e-05
        1.1394921725588947e-05 1.6563297479437866e-04
        5.7532400390865812e-05 3.5740947597722741e-04
        2.1914338807413358e-04 4.7438603285604648e-05
        1.5659014671105071e-04 1.4147951786215520e-04
        5.8753977426538942e-05 1.9347925840820812e-04
        1.7474369460040214e-04 1.5944520802151064e-04
        3.8317865624643504e-05 9.3196633553134685e-05
        1.2037899080263696e-04 3.3260181889454660e-05
        1.0222544826390522e-04 1.3843261709216509e-04
        7.7663863523703774e-06 2.0664952518126604e-04
        2.5940163192273509e-04 2.5121309117715472e-04
        6.6014281654252095e-05 2.9799126625367747e-05
        7.1582040021994338e-05 1.6697730222858462e-04
        1.0484621676024129e-04 1.6028550040286197e-04
        1.3591176484503264e-04 7.7237731766054401e-05
        2.2032740272997370e-05 1.2814537247321511e-04
        2.0098984018478215e-04 1.5490558452921723e-04
        1.3979495568032171e-04 1.1607365477384773e-04
        1.6697730222858462e-04 4.8942966918555223e-04
        1.1261259843081944e-04 1.9762071582111519e-04
        1.5102239369392816e-04 8.5430251882556534e-05
        1.1261259843081944e-04 8.5430251882556534e-05
        4.9637233276715164e-05 3.8409792587798877e-05
        1.2814537247321511e-04 3.0861273403350574e-04
        3.4526599077199958e-05 3.8831931761851887e-06
        1.3202856330850419e-04 3.3682319467139205e-05
        9.3196633553134685e-05 3.9672216933234270e-05
        5.8247899983673943e-05 0. 2.2099183235633509e-04
        1.7329341646365776e-04 2.3299158388283671e-05
        1.3591176484503264e-04 3.4211519653834445e-04
        1.5144453888742831e-04 1.2037899080263696e-04
        7.7663864861358695e-05 3.4526599077199958e-05
        1.9153888563113114e-04 1.3759632702686612e-04
        1.0484621676024129e-04 7.1159900179113868e-05
        2.2134201672758917e-04 1.6510089865501634e-04
        2.1001066645850042e-04 0. 1.3860848425349223e-04
        1.7100286846428482e-04 1.2037899080263696e-04
        9.3196633553134685e-05 2.5915933449182558e-05
        1.7217336224229158e-05 1.1041396977736384e-04
        7.3442471783173677e-06 2.6099825686384153e-04
        9.3196633553134685e-05 1.4586479192873147e-04
        3.8831931761851887e-06 1.0433215028861917e-04
        1.1261259843081944e-04 1.1261259843081944e-04
        5.0481512962476105e-05 8.0096785251419187e-05
        6.5592147161991311e-05 2.9376988713269471e-05
        1.0872940759553036e-04 7.7663863523703774e-06 0.
        1.6309411139329554e-04 1.6309411139329554e-04
        1.4756133735089987e-04 8.1547055696647771e-05
        9.7079824388423760e-05 1.9804285031337597e-04
        1.2711724488059057e-04 1.3202856330850419e-04
        9.3196633553134685e-05 1.7862688543569122e-04
        1.1261259843081944e-04 7.7663864861358695e-05
        2.7299402733248126e-04 1.6697730222858462e-04
        2.5771706513338715e-04 6.2127097642239383e-05
        7.3442471783173677e-06 1.1775023647170313e-04
        7.7663864861358695e-05 1.6375054405029987e-04
        1.7642825678223562e-04 1.2814537247321511e-04
        3.8831931761851887e-06 5.8666042712566201e-05
        1.7474369460040214e-04 1.3759632702686612e-04
        1.2163342964788832e-04 5.5483795235151826e-04
        1.2426218163792604e-04 3.8831931761851887e-06
        5.8247899983673943e-05 9.9604679767569156e-05
        2.8735629303122158e-04 2.1623883892387709e-04
        1.5144453888742831e-04 1.4797150100916915e-04
        8.1547055696647771e-05 1.3937281048682156e-04
        2.2454880709005113e-05 7.3780668675449933e-05
        4.3977549617886199e-05 3.1168854025215027e-04
        4.6176179608996715e-05 8.9313442717845609e-05
        1.2037899080263696e-04 8.5430251882556534e-05
        1.3937281048682156e-04 1.3202856330850419e-04
        1.0484621676024129e-04 2.6419151447487285e-04
        1.3979495568032171e-04 2.6115659174599836e-04
        1.3759632702686612e-04 1.9415966215339674e-05
        8.9313442717845609e-05 7.7663863523703774e-06
        1.4688494356634735e-05 3.5789023757049082e-05
        3.0822748658443182e-04 2.0726539176332847e-04
        3.1836416935325496e-05 1.4147951786215520e-04
        1.3416998191299987e-04 0. 1.7217336224229158e-05
        1.6446465957354554e-04 1.4821777000790419e-04
        3.8089442626232400e-05 8.7714481748639266e-05
        1.1329787771419304e-04 3.6547701777740846e-06
        9.0312741038680233e-05 9.1854483504634054e-05
        7.3095403555481693e-06 1.8168199579777469e-04
        8.8199713012117624e-05 7.3580631042051902e-05
        6.2131090818963019e-05 7.3095403555481693e-06
        6.8384118083581651e-05 1.5715511355263515e-04
        9.8678795744127322e-05 1.3619695312449328e-04
        1.2791695968425876e-04 3.9145956661388974e-05 0.
        1.2060741366334837e-04 1.8428025005193813e-04
        1.3888126360799176e-04 1.3157172765883643e-04
        1.0233356371870499e-04 1.5715511355263515e-04
        4.8208542200723487e-04 1.0598833169328265e-04
        1.7908374154361126e-04 1.3522649563341409e-04
        8.0404945799483936e-05 1.0598833169328265e-04
        8.0404945799483936e-05 3.2892931914709107e-05
        2.9238161422192677e-05 1.2060741366334837e-04
        8.7143196100529399e-05 2.5583390929676247e-05
        3.6547701777740846e-06 1.2426218163792604e-04
        1.0964310218579908e-05 8.7714481748639266e-05
        2.4526876579777327e-05 5.4821554869807689e-05 0.
        5.8961550960440255e-05 1.6023859462013356e-04
        2.1928620437159816e-05 1.2791695968425876e-04
        1.4244997593896853e-04 1.4253604165432449e-04
        1.1329787771419304e-04 7.3095404814451075e-05
        2.5583390929676247e-05 1.7437244977686430e-04
        1.3051521393842220e-04 9.8678795744127322e-05
        6.1074577098548790e-05 2.0832190548374270e-04
        1.1897961110365028e-04 1.3359869307371600e-04 0.
        2.0872106402003242e-05 1.6803336938658354e-04
        1.1329787771419304e-04 8.7714481748639266e-05
        3.6547701777740846e-06 1.7217336224229158e-05
        1.0493181797286842e-04 0. 1.2628915208868314e-04
        8.7714481748639266e-05 5.6363292885618132e-05
        3.6547701777740846e-06 1.0022053627787653e-04
        1.0598833169328265e-04 1.0598833169328265e-04
        4.7512013884774829e-05 7.2524115074690715e-05
        5.4821554869807689e-05 0. 1.0233356371870499e-04
        7.3095403555481693e-06 0. 1.5350034557805748e-04
        1.5350034557805748e-04 1.3888126360799176e-04
        7.6750172789028740e-05 9.1369249723216930e-05
        1.8639327749276659e-04 1.2369089976672432e-04
        1.2426218163792604e-04 8.7714481748639266e-05
        1.6811942754812320e-04 1.0598833169328265e-04
        7.3095404814451075e-05 2.5997391608863479e-04
        1.5715511355263515e-04 8.5601454307810809e-05
        3.1836416935325496e-05 0. 5.1652010604892086e-05
        7.3095404814451075e-05 1.5918208400339225e-04
        1.6706291382770897e-04 1.2060741366334837e-04
        3.6547701777740846e-06 3.5491187427841926e-05
        1.6446465957354554e-04 1.3051521393842220e-04
        5.5306780782666171e-05 5.5460952935310710e-04
        1.1695264568877071e-04 3.6547701777740846e-06
        5.4821554869807689e-05 8.1946686333233144e-05
        2.7045299126682819e-04 1.7217335837788235e-04
        1.4253604165432449e-04 6.6271091315988425e-05
        7.6750172789028740e-05 1.2426218163792604e-04
        7.3095403555481693e-06 6.9440631803995879e-05
        3.5491187427841926e-05 3.0365902409827097e-04
        3.6547702407225538e-05 8.4059713774061601e-05
        1.1329787771419304e-04 8.0404945799483936e-05
        1.2426218163792604e-04 1.2426218163792604e-04
        9.8678795744127322e-05 2.0246803797063263e-04
        1.3157172765883643e-04 2.4007225351253825e-04
        1.3051521393842220e-04 1.8273851203612769e-05
        8.4059713774061601e-05 7.3095403555481693e-06 0.
        2.0872106402003242e-05 3.0731379459078740e-04
        2.4187451058144127e-05 2.4328270887037651e-04
        5.8753977426538942e-05 0. 1.9923153865266142e-03
        2.1175918324905230e-03 4.8374903003262125e-06
        2.9752254308523709e-04 1.1363015925719769e-03
        2.4187451058144127e-05 1.9349961201304850e-05
        1.2788965115576364e-03 8.2941428484683069e-05
        2.0361760396944845e-03 3.2411186120902963e-04
        2.2963600201019417e-04 3.0543436693990884e-03
        3.9423971121178968e-03 8.7074828066793439e-05
        9.1762081152238842e-04 4.3537414033396719e-05
        1.0245306611297693e-04 0. 2.6817423478576845e-04
        1.9349961201304850e-05 5.9629161417627309e-04
        9.7617935026288356e-04 0. 5.8753977426538942e-05
        5.8753977426538942e-05 2.0006864192562764e-04
        3.5160071377382703e-04 9.6749806006524251e-06
        1.6120704353951587e-04 0. 3.5643820407415324e-04
        5.8753977426538942e-05 4.8374903003262125e-06
        4.8374902116288254e-05 4.8374902116288254e-05
        2.1512353066572860e-04 2.7333509025314522e-04
        4.8374903003262125e-06 4.8564271396524927e-03
        3.4986916170434267e-04 2.0801207626172311e-04 0.
        8.6924590674517855e-04 0. 6.7331068655064087e-04
        9.6749806006524251e-06 5.8049885377862293e-05
        3.2545739444089037e-03 2.8784755982366305e-04
        2.1458111282660628e-04 3.8699922402609700e-05
        3.2449564784210044e-03 0. 1.0245306611297693e-04
        9.6749806006524251e-06 1.6120704353951587e-04
        1.6120704353951587e-04 7.7399844805219400e-05
        1.7898714066858293e-04 2.3860688967519608e-04
        2.9024942688931146e-05 8.7930163692448524e-04
        9.0457398186209736e-04 1.9349960846515302e-04
        1.4127632785112323e-03 3.0252171694794051e-04
        1.0729055641330314e-04 1.4512471344465573e-05
        1.4597768701835679e-03 4.1291821114859857e-04 0.
        8.8805348604403291e-04 1.9013835973788317e-03
        4.8374903003262125e-06 2.0765031869573363e-03
        1.7414965613358688e-04 9.1912312601789489e-05
        1.1212804715711629e-04 0. 2.4187451058144127e-05
        1.6120704353951587e-04 2.6849760039630594e-04
        2.5920336076429989e-04 1.4512471344465573e-05
        3.7248676332531788e-04 3.3638415038068480e-04 0. 0. 0.
        3.0735920769175366e-04 1.4512471344465573e-05
        1.0729055641330314e-04 1.0729055641330314e-04
        5.8049885377862293e-05 9.6749806006524251e-06
        4.8374903003262125e-06 9.6749806006524251e-06
        1.8866212393015697e-04 4.8374903003262125e-06
        4.8374903003262125e-06 3.4689935270719712e-03
        1.7282745341315273e-03 4.7824122336607294e-04
        1.1241542602297169e-03 1.1696553701395556e-04
        1.1696553701395556e-04 1.0245306611297693e-04
        2.9024942688931146e-05 2.6122447710458935e-04
        2.6333675025077240e-04 9.6749806006524251e-06
        2.9284673634728808e-04 1.4315134670344967e-03
        1.0245306611297693e-04 9.6749806006524251e-06
        2.2736204278487118e-04 0. 4.2486716254483154e-04
        9.7615575812650714e-05 1.4205918972775827e-03
        1.4512471344465573e-05 9.6332792900172270e-04
        1.4512471344465573e-05 7.3266448771004515e-05
        5.1764523870433316e-04 1.9349961201304850e-05
        4.6994064541498910e-04 4.5889126127779422e-04
        2.1355366703697774e-04 2.0006864192562764e-04 0.
        1.4512471344465573e-05 6.3591467726865154e-05
        9.6749806006524251e-06 4.8374903003262125e-06
        6.7977544238207854e-04 9.7615575812650714e-05
        3.2725157782284488e-04 2.3393107402791113e-04
        1.2577475401729862e-04 4.8374903003262125e-06
        2.9768422664761430e-04 1.8039533186172720e-04
        8.0565444911395126e-04 1.2664051850158186e-04
        2.7295440339025973e-05 4.2214732553702583e-04
        1.9347925840820812e-04 1.7217336224229158e-05
        2.1175918324905230e-03 7.3465419872369986e-03
        2.0156208599166059e-06 3.7159705408947464e-04
        5.3229753381627042e-04 1.0078104114796815e-05
        8.0624834396664236e-06 1.1888056934653835e-03
        2.0355736252300493e-04 5.5871626057503740e-03
        1.3504660223406795e-04 4.2134197556819631e-04
        9.5150389664148960e-03 8.2291661573004327e-03
        3.6281176587216191e-05 1.7952117482539220e-03
        3.5357924517837253e-05 4.7569553071389811e-05 0.
        6.7038655251972119e-04 8.0624834396664236e-06
        1.0392200199429785e-03 8.7184620355789180e-04 0.
        2.1069659463243727e-04 1.7626192218397896e-04
        9.3123485282863017e-05 1.2362847708995983e-03
        4.0312417198332118e-06 7.0591689726260363e-04 0.
        2.1616614396830248e-03 1.7626192218397896e-04
        2.0156208599166059e-06 2.0156208229593631e-05
        2.0156208229593631e-05 3.9807777657943112e-04
        2.7543227004659179e-04 2.0156208599166059e-06
        9.5672009461825192e-03 3.0244068731382669e-04
        8.6671694204620842e-05 0. 8.5169449099210121e-04 0.
        6.2572952842197848e-04 4.0312417198332118e-06
        2.4187451058144127e-05 4.8445241073971435e-03
        3.5034847696889960e-04 9.9170347862612834e-05
        1.6124966879332847e-05 1.2112296133784952e-02 0.
        4.7569553071389811e-05 4.0312417198332118e-06
        2.2383147525536877e-04 2.4104881147959793e-04
        4.9467269982894852e-05 7.4577971632128204e-05
        2.7329874579262226e-04 1.2093725529072064e-05
        2.3109138234215102e-03 2.9188069144329707e-03
        8.0624832918374523e-05 3.9772504231102360e-03
        2.6121439801375136e-04 4.9585173931306417e-05
        6.0468627645360318e-06 2.9737558094680427e-03
        1.9902813768034691e-04 1.7217336224229158e-05
        5.6084958810535823e-04 1.2883046348473690e-02
        2.0156208599166059e-06 3.7127093123064708e-03
        7.2562353174432381e-05 7.2731467493370328e-05
        5.1600794976009237e-05 0. 1.0078104114796815e-05
        2.9270082015228540e-04 2.7341664937146140e-04
        7.1512579285071265e-04 6.0468627645360318e-06
        1.5520281046366158e-04 1.5480238908571753e-04 0. 0. 0.
        1.4270866355664547e-04 6.0468627645360318e-06
        4.9585173931306417e-05 1.1845451882822305e-04
        2.4187451058144127e-05 4.0312417198332118e-06
        2.0156208599166059e-06 4.0312417198332118e-06
        7.8609214460678700e-05 5.3667631464808692e-05
        2.0156208599166059e-06 5.9966713179391007e-03
        1.4176677544497642e-03 3.7057137655894384e-04
        1.9153641838516667e-03 5.3616415651139629e-05
        1.3970309484008080e-04 6.4786889295618969e-05
        1.2093725529072064e-05 1.0884352680506915e-04
        5.8228424907647036e-04 4.0312417198332118e-06
        1.5387913701633859e-04 2.0580728470387397e-03
        5.9852431224672285e-04 4.0312417198332118e-06
        9.4734179861721834e-05 0. 5.2966718037306170e-04
        4.5553932211473205e-05 9.1104693231402762e-03
        6.0468627645360318e-06 2.1372730292486550e-03
        6.0468627645360318e-06 1.8230878494851499e-04
        2.3854929107807038e-03 8.0624834396664236e-06
        3.6480702835975398e-04 6.5520360662939606e-04
        2.4076178970131035e-04 9.3123485282863017e-05 0.
        6.0468627645360318e-06 1.7827754304389556e-04
        4.0312417198332118e-06 2.0156208599166059e-06
        1.6622061287451719e-03 4.5553932211473205e-05
        5.8741726134927362e-04 1.2445016752650842e-04
        5.2406144944838751e-05 2.0156208599166059e-06
        1.3867742165202604e-04 3.7872691684037729e-04
        1.6139953623828566e-03 3.5034237162023633e-04
        2.6927070151905666e-04 3.1039311627838618e-05
        1.7474369460040214e-04 1.6446465957354554e-04
        4.8374903003262125e-06 2.0156208599166059e-06
        2.3168155391770532e-04 9.0999965025445731e-05
        5.9158162495754637e-05 1.2536411199922434e-04
        1.6093763877761630e-04 1.0783258901176615e-05
        1.0480603486380828e-04 5.8550348916142168e-05
        3.7288362165387265e-05 2.3248780231341210e-04
        5.5023324727190495e-05 3.8496481934246856e-05
        9.4628082750690390e-05 1.5116531523672809e-05
        7.5581405403457976e-05 2.2140250472744302e-04
        1.3876705784299833e-04 5.3915045097086033e-05
        1.8149572299473520e-04 3.1643371143576472e-05
        5.0390521497915147e-05 1.6960417708697384e-04
        2.1072034552121165e-04 1.9530177881752105e-04
        1.8542586797003921e-04 1.4390657535642663e-04
        2.2180562890681779e-04 4.0312417937476988e-07
        1.4904609286985494e-04 2.5223963813482425e-04
        1.9016226130409274e-04 1.1347258029182589e-04
        1.5307733458968815e-04 1.1710069783228434e-04
        4.6255685947666110e-05 4.2728661610885464e-05
        1.7000730126634861e-04 3.1341341790476235e-05
        5.2101610718439505e-05 2.2473859770429750e-05
        1.7474369460040214e-04 1.6224809751163006e-05
        1.2334849113930773e-04 1.5922779512849913e-05
        7.7899060632093998e-05 4.8374903003262125e-06
        1.1085289582096136e-05 1.3130987779748769e-04
        3.2449619502326012e-05 1.8310821971223430e-04
        3.8899606224493356e-05 2.0044131049435504e-04
        1.5972826623949200e-04 1.0359666236264120e-04
        3.6379768018481425e-05 2.2140250472744302e-04
        1.6577512893011355e-04 1.5368265244290757e-04
        6.8527356729896683e-05 2.9537142753985037e-04
        4.9480679382664269e-05 6.8829391024701619e-05
        1.6124966879332847e-05 1.1992631771916116e-05
        6.7620018523534546e-05 1.6013139041886677e-04
        1.2455786371438928e-04 6.3488931867548512e-06
        1.8140587739249453e-05 1.2334849113930773e-04
        4.0312417198332118e-06 6.1775342646798275e-05
        1.2375161531868250e-04 3.1240246964201699e-05
        1.9651991512651936e-05 1.0017073104475214e-04
        1.5025546544493649e-04 1.4904609286985494e-04
        6.8829391024701619e-05 5.5426447910480679e-06
        7.8302184848426018e-05 2.0156208599166059e-06
        1.4511594793150819e-04 4.1319603885220477e-05
        3.6281177252446594e-06 2.1585986303463995e-04
        2.1585986303463995e-04 1.9530177881752105e-04
        1.0913930409240153e-04 1.2969738122781759e-04
        2.6292179734105559e-04 7.7899060632093998e-05
        1.7958118490072836e-04 1.2415473949805726e-04
        2.3682107143113362e-04 1.4985234122860447e-04
        1.1851225718429391e-04 2.9335580656906205e-04
        2.2140250472744302e-04 7.7597025967716634e-05
        2.2976827596856298e-05 2.4187451501631063e-06
        8.0624835874953976e-07 1.0440291072139075e-04
        1.0440291072139075e-04 2.1112346970058641e-04
        1.7202292223713695e-04 2.6908226371825358e-05
        3.2953838951462237e-05 2.3208467809708008e-04
        1.5932514206011723e-04 7.1551414715899039e-06
        5.5426447910480679e-06 1.6527090793229507e-04
        2.4086356931415752e-05 7.7092812273344465e-05
        6.8023142739866567e-05 3.8032452260818549e-04
        7.6593591494199232e-06 2.0165068306943659e-04
        2.2573703306609798e-05 1.0913930409240153e-04
        1.7595306717548370e-04 1.1085289582096136e-05
        9.9263386126259603e-05 5.9963158119555218e-05
        1.6224809751163006e-05 6.4295180741938472e-05
        1.1861209780525419e-04 1.5932514206011723e-04
        1.1427882868753268e-04 1.7514681877977691e-04
        1.7554994295915168e-04 1.3917018202237310e-04
        6.8023142739866567e-05 1.8502274379066444e-04
        1.4511594793150819e-04 1.6255013549511539e-04
        3.6178832682118344e-05 1.1861209780525419e-04
        1.0682165402721366e-05 5.2406145905727129e-06
        5.5426447910480679e-06 2.2976827596856298e-05
        2.0519029340750148e-04 2.0287262541092025e-04
        1.5944520802151064e-04 1.4821777000790419e-04
        2.9752254308523709e-04 3.7159705408947464e-04
        9.0999965025445731e-05 5.2946865423893989e-04
        7.2535979415352275e-04 6.4738905070175438e-05
        7.4701966302297119e-05 2.1226632620710280e-04
        1.5040344709154599e-04 5.6308563820904145e-04
        2.4696708908295744e-04 2.1204678406650912e-04
        7.0050872202635035e-04 8.4049102943061741e-04
        9.8313261877221126e-05 1.6056121190552569e-04
        1.4592209161287130e-04 1.0013217855191992e-04
        5.2423108380120643e-05 6.2496143864007245e-04
        8.2468353323494957e-05 1.8075996131217419e-04
        5.0157826703796566e-04 6.4072686236607557e-05
        2.5912306583520295e-04 8.1124915853767300e-05
        9.9556414990171425e-05 1.0075518130114283e-04
        9.0744886564781628e-05 2.4344148305503891e-03
        5.6306299215409718e-05 1.4515682955002122e-04
        7.9183320436122763e-05 4.6343243666522926e-05
        9.2587475802625909e-05 7.8996302528494457e-05
        4.5178273529057904e-05 6.3420310208802668e-05
        6.7700803961852216e-05 1.0286534759658466e-03
        1.7907553918900638e-04 1.5795065378438494e-04
        6.6014281654252095e-05 1.2622162974350402e-04
        4.6598316776567342e-05 2.2052906025349847e-04
        3.6380185442326290e-05 4.3537414033396719e-05
        6.9128110074960687e-04 4.5165851863192687e-04
        5.2192869519886382e-05 9.6980824224473594e-05
        1.0933599343985645e-03 7.5722269443714157e-05
        7.6833022838946095e-05 4.6088167881168666e-05
        3.7578950565386276e-05 1.9356310491917846e-04
        2.0432605819417421e-04 1.8666346388155784e-04
        1.9142349679492998e-04 1.3243971538049295e-04
        5.8607522546567860e-04 5.8630343569067260e-04
        1.4512470634886476e-04 3.1927587180664830e-04
        6.7414998624039878e-04 8.0461140564190754e-05
        5.7482670284916522e-05 2.0405901544250614e-04
        2.7538279325617994e-04 1.3268499596550852e-04
        1.4774870146459719e-04 7.3527621144349486e-04
        5.0226434501812002e-05 4.5779774523515117e-04
        1.3255383868828277e-04 2.7605633174930489e-04
        8.0206062436141853e-05 5.6306299215409718e-05
        4.3381344774846148e-05 3.7027608795980226e-04
        7.3383370103269428e-05 4.7517577006877566e-05
        6.5249057306114360e-05 2.8324826567017363e-04
        7.1699290850107825e-05 8.1547055696647771e-05
        8.1547055696647771e-05 7.3780668675449933e-05
        9.0704111681733351e-05 5.9424265702561060e-05
        1.1929307031956026e-04 3.9374231191047394e-04
        1.0955169568764881e-04 5.3854552227056661e-05
        9.2941560443090269e-05 6.3562534665899037e-05
        1.8032852537829707e-04 3.7255917331688565e-04
        8.7116768839536968e-05 6.9239065759708462e-04
        3.4022991289658081e-04 8.1174593044547544e-05
        4.0970696919526731e-04 6.6359813044040939e-05
        4.9679319932772396e-04 1.8233566690557202e-04
        8.5841393253305916e-05 1.9785995441653462e-04
        1.8313352361970346e-04 9.4628082750690390e-05
        1.8532240491531994e-04 4.6157914895153898e-04
        2.7733588580718376e-03 6.9387326269452338e-05
        1.7246312867674599e-04 2.9123949991836972e-05
        2.6203319304916460e-04 1.5669355622799374e-04
        1.1040205823127096e-03 8.6606622952063337e-05
        4.0399996989842144e-04 5.1657881356673065e-05
        8.4242882340918642e-05 7.7889561832841060e-05
        5.1402805238703604e-05 4.1152891046626600e-04
        1.5359604476263865e-03 1.4285998060148614e-04
        7.4315658508933372e-05 6.0189495401318481e-05
        5.3599479449627447e-05 7.6986646557814122e-05
        7.3270517104741413e-05 5.6051226105365302e-05
        8.9569000988033980e-04 8.2912887552543811e-05
        7.9466180459904440e-04 2.0133193581698284e-04
        1.0403904862064380e-04 4.8284839084167464e-05
        4.6557541226490134e-05 6.1854027113121719e-05
        1.9745275228185956e-04 1.5060240396324288e-03
        3.1046687865219106e-04 1.4393762770385861e-03
        3.8317865624643504e-05 3.8089442626232400e-05
        1.1363015925719769e-03 5.3229753381627042e-04
        5.9158162495754637e-05 7.2535979415352275e-04
        7.4701744320106412e-03 2.7283428202278090e-04
        2.1961512621489389e-04 1.0817603991620291e-03
        3.0681210831704582e-04 9.2780844078617299e-04
        3.6194775531763305e-03 2.3416864735164810e-04
        1.1437688165536904e-03 1.9438065528144725e-03
        9.7427718021518149e-04 8.7622180245384637e-04
        5.2220142619510755e-04 9.1468262869602861e-05
        3.0837123670039788e-06 1.2339901076735529e-03
        2.2007197252645844e-04 2.4077279963606577e-04
        6.8174071590774007e-03 3.7689816769796367e-06
        7.3552019197025374e-05 4.3400394877497425e-06
        1.2320730574742333e-04 1.0081349789699306e-04
        1.1294838106668253e-04 1.0507280095855527e-03
        3.3121353654150829e-06 1.5723058283810272e-04
        4.2258279885441904e-06 5.6531296440315212e-05
        5.4349854430168684e-04 5.4269906349250564e-04
        3.3566427809336334e-05 2.8206530745477222e-04
        5.7787623561060975e-05 1.9032649534534046e-03
        2.1940836403986411e-03 2.3229157382994910e-03
        3.8831931761851887e-06 3.3614957536216953e-04
        2.7410775546449770e-06 9.5361666771331304e-04
        1.0975045735784417e-04 6.4822372241805926e-04
        8.6234018997497722e-04 5.8380150455344406e-04
        2.8183688429898998e-04 4.3614654006278377e-04
        1.8427171772568490e-03 4.4542513016976402e-06
        9.0097724249651545e-05 1.1032151516861427e-04
        8.7356646537635395e-05 1.2590293531806118e-04
        9.0227350127232821e-04 2.0017734571257427e-03
        9.8666066179897748e-04 3.3062192075539659e-04
        7.6804301303809756e-04 5.4136688731070098e-04
        2.1607456357450872e-03 1.0830199056507156e-03
        4.4818031923646285e-04 1.4411636613373288e-04
        1.6479700815915979e-04 5.8517094713381353e-04
        2.5303505600356847e-03 3.7175750003103292e-05
        8.0049459843228518e-04 1.1359802543109657e-03
        5.6759719438726316e-05 5.7911256996901167e-04
        1.9447853788222332e-03 1.0972793142732357e-03
        1.9790658965693157e-04 3.3121353654150829e-06
        2.7157795490203511e-04 2.2441006693297173e-04
        2.2884615156819967e-04 2.7009320446813589e-04
        1.6525385447072434e-04 4.1596639621126023e-03
        5.8378336584432797e-04 4.7968857993142963e-06
        4.7968857993142963e-06 4.3400394877497425e-06
        2.6206994753495547e-04 1.6491121965836534e-04
        1.4640059737681331e-04 2.8002767083867912e-04
        6.5210691559424447e-04 1.1077836132280765e-04
        5.9272373994960189e-05 1.1134941913357776e-04
        2.1090112896409779e-03 1.6383272264023247e-04
        5.8929739182601187e-05 1.5100382817090200e-03
        8.4708125008362738e-04 4.5426595595703632e-04
        4.0657245303951390e-04 2.5089732262377864e-04
        4.2307068100166099e-04 1.2567451231965007e-04
        3.2788084288600926e-04 2.9171208832129893e-03
        1.0073413139256601e-03 1.1317680437983598e-04
        1.3559080515781037e-04 6.6635815933832609e-04
        1.1885808954898045e-03 1.1169205394593676e-04
        2.5389903652630660e-03 1.7131735896814903e-06
        3.3002559996611418e-04 4.0990179664090055e-05
        1.6960861088178743e-03 1.6651018190621245e-04
        4.7146964598092535e-04 1.6445437350417195e-04
        1.6593912378070000e-04 2.3841980165228025e-04
        2.1824458728020023e-04 4.6265902062568812e-03
        8.2392344096988209e-04 1.7297386559908287e-03
        1.2172255531352411e-04 3.5405586785685326e-06
        1.6456858516074869e-04 5.7901835060266527e-05
        1.1192047694434787e-04 5.7102354251085317e-05
        5.3852977658413298e-04 3.6650140176340312e-05
        5.0580828143239427e-04 5.3520141357368085e-04
        1.4050558161680189e-03 5.6645507939520764e-05
        1.5186263905097574e-04 7.0224237915895299e-04
        3.1633718280027132e-04 9.4249665892763524e-04
        1.5261414167747067e-04 6.3370455163418659e-05
        9.3196633553134685e-05 8.7714481748639266e-05
        2.4187451058144127e-05 1.0078104114796815e-05
        1.2536411199922434e-04 6.4738905070175438e-05
        2.7283428202278090e-04 7.5863963537822245e-05
        9.3035889286057979e-05 3.0959768484760175e-05
        6.4899656151923366e-05 4.0229957924061820e-05
        1.4052875734335790e-04 1.2939535390384376e-04
        4.5551364312171371e-05 5.4743259900668370e-05
        8.2879493363783533e-05 2.9669606167434081e-05
        5.6515673586524269e-05 1.1988195264091284e-04
        7.4009094683584638e-05 6.2966493272773559e-05
        1.0400020044886490e-04 2.0477706575589569e-05
        2.5195260286992038e-04 9.0455557650886975e-05
        1.1238417997650081e-04 1.0416094471594160e-04
        1.0069441377136279e-04 7.6750170585832347e-05
        1.2189757350082944e-04 2.0156208599166059e-06
        7.9491246488080057e-05 1.3632842316203125e-04
        1.0141986881369389e-04 6.2319328478446616e-05
        9.9647454717673688e-05 8.0459915848123641e-05
        2.4669698227861546e-05 2.9991103876826240e-05
        9.2471178510803581e-05 4.1924078939396836e-05
        9.9812375564832610e-05 8.9412771759265819e-05
        9.3196633553134685e-05 1.2254474147711390e-05
        6.5785859423025429e-05 3.3700846039405152e-05
        4.5147406691905135e-05 2.4187451058144127e-05
        9.5133968291231659e-06 8.2636280790330738e-05
        2.4508948295422781e-05 1.1206268388853132e-04
        5.6758881314943619e-05 1.0690202817200539e-04
        8.6989026706308162e-05 5.8852793756959763e-05
        2.1203163506374693e-05 1.1988195264091284e-04
        1.1722333960505725e-04 1.4858706631571284e-04
        6.7158484884453657e-05 1.6833515015680055e-04
        4.0794665107194393e-05 4.5712113505465279e-05
        8.0624832918374523e-05 3.7006632727585919e-05
        3.9665251110501676e-05 8.9004647566224768e-05
        7.1832722187561461e-05 8.7879403191810088e-06
        9.0702937033171338e-05 6.5785859423025429e-05
        2.0156208229593631e-05 5.6354926281684380e-05
        6.7801480282942035e-05 1.8462085715672963e-05
        7.5303430729077358e-05 8.7636191500635105e-05
        8.5538109252616089e-05 7.9491246488080057e-05
        4.5712113505465279e-05 4.7566984145615829e-06
        4.7163027736607955e-05 1.0078104114796815e-05
        8.2797033350368379e-05 1.6068496557295153e-04
        1.8140588293608095e-05 1.1512525587874852e-04
        1.1512525587874852e-04 1.0416094471594160e-04
        6.3609490703910292e-05 7.4573798089809171e-05
        1.4382619582644328e-04 4.5147406691905135e-05
        1.1738408461127881e-04 6.9817101142858641e-05
        1.2810518790147205e-04 8.3522488207913269e-05
        1.3343076649780525e-04 1.5825704548764509e-04
        1.1988195264091284e-04 6.6593776223031372e-05
        2.3058035747651972e-05 1.2093725529072064e-05
        4.0312417198332118e-06 6.2884035476792974e-05
        6.2884035476792974e-05 1.1439980083641742e-04
        1.0254928317995904e-04 1.1158460435971412e-04
        4.9986564596497828e-05 1.2737973285914094e-04
        8.4973405846391556e-05 1.2819181669441792e-05
        4.7566984145615829e-06 9.1745723468472477e-05
        9.7475257416366812e-05 4.1116164972071923e-05
        4.1680872155204496e-05 2.0283973762738779e-04
        3.8296795044912013e-05 1.1294889093654142e-04
        2.1042414333376724e-05 6.3609490703910292e-05
        9.9243496317670717e-05 9.5133968291231659e-06
        6.0142955797637225e-05 1.8503315796082750e-04
        1.2254474147711390e-05 9.1910643535894664e-05
        6.5060404380694326e-05 8.4973405846391556e-05
        6.6350570383066042e-05 9.5212254413051291e-05
        9.7227875272967897e-05 7.6024715543501244e-05
        4.1680872155204496e-05 9.8678792911446184e-05
        8.2797033350368379e-05 1.0109837272572440e-04
        6.6111532954120388e-05 6.5060404380694326e-05
        7.4977759692065600e-06 2.6203072472419375e-05
        4.7566984145615829e-06 2.3058035747651972e-05
        1.9217154082336318e-04 5.6087151438855834e-05
        1.2037899080263696e-04 1.1329787771419304e-04
        1.9349961201304850e-05 8.0624834396664236e-06
        1.6093763877761630e-04 7.4701966302297119e-05
        2.1961512621489389e-04 9.3035889286057979e-05
        1.1620730803996740e-04 2.6115511836581802e-05
        7.8873658230663689e-05 4.7008629818640242e-05
        1.1511840112529974e-04 1.6416263236044345e-04
        4.9918058296477270e-05 5.1880788059277582e-05
        8.9214437203275756e-05 2.6431078558441915e-05
        6.4080291791124787e-05 1.5385651593215947e-04
        9.5595085236070340e-05 6.2502465009703139e-05
        1.3036954397386815e-04 2.4468344896596048e-05
        2.0156208599166059e-04 1.1683843425841500e-04
        1.4516290612621649e-04 1.3454122673653771e-04
        1.2907261036559285e-04 9.9135641780292300e-05
        1.5546901264965857e-04 1.6124967174990795e-06
        1.0267619832451426e-04 1.7509987471151704e-04
        1.3100067019231575e-04 7.9504789475446717e-05
        1.1880116520384711e-04 9.4017259637280484e-05
        3.1865028412023447e-05 3.4774456298544579e-05
        1.1845093097591408e-04 4.0277746855762585e-05
        8.9283777962404463e-05 7.2877915313594342e-05
        1.2037899080263696e-04 1.3846669165797104e-05
        8.4973405846391556e-05 2.9656070515150334e-05
        5.6333375747872721e-05 1.9349961201304850e-05
        1.0306110792135224e-05 9.9801438969620150e-05
        2.7693338331594207e-05 1.3681953084386446e-04
        5.3493285220263583e-05 1.3808179303777257e-04
        1.1136981788747016e-04 7.4036168225995424e-05
        2.6396407162572154e-05 1.5385651593215947e-04
        1.3555726864995636e-04 1.5525746363570731e-04
        6.9899147564167052e-05 2.1148683046247189e-04
        4.4765002152016083e-05 5.4089747785590614e-05
        6.4499867517331388e-05 3.0953003319539806e-05
        4.9252257780922349e-05 1.1298231460496924e-04
        8.9810896146717768e-05 8.3780489788947451e-06
        7.2562350956997812e-05 8.4973405846391556e-05
        1.6124966879332847e-05 5.9908604741264670e-05
        8.6585902563890635e-05 2.2855848179096968e-05
        6.1590442282483083e-05 9.4367493421726586e-05
        1.0751368862484047e-04 1.0267619832451426e-04
        5.4089747785590614e-05 5.1530553960676121e-06
        5.7945872613200775e-05 8.0624834396664236e-06
        1.0397313208061851e-04 1.3124336800463259e-04
        1.4512470900978638e-05 1.4870346267043845e-04
        1.4870346267043845e-04 1.3454122673653771e-04
        7.9189221635545437e-05 9.3351452690939728e-05
        1.8379348451746006e-04 5.6333375747872721e-05
        1.3972895200394181e-04 8.8198399281389715e-05
        1.6447819532183826e-04 1.0590119175951242e-04
        1.3369854751260624e-04 2.0342434657931853e-04
        1.5385651593215947e-04 7.2142774048159419e-05
        2.3837215314926555e-05 9.6749806006524251e-06
        3.2249934349981590e-06 7.7261161660993583e-05
        7.7261161660993583e-05 1.4677540284371556e-04
        1.2651341485906743e-04 9.0615381719176774e-05
        4.6727735499706591e-05 1.6255013549511539e-04
        1.0975732116997108e-04 1.1603042118234956e-05
        5.1530553960676121e-06 1.1652287114919120e-04
        7.9327903957538348e-05 5.3108382312874562e-05
        5.0864754646250403e-05 2.6200134038463149e-04
        3.0637436597679693e-05 1.4291928333809878e-04
        2.2224718153940554e-05 7.9189221635545437e-05
        1.2521648110296317e-04 1.0306110792135224e-05
        7.3720600238265171e-05 1.5476501217207852e-04
        1.3846669165797104e-05 8.7005482355469177e-05
        8.3045346019668676e-05 1.0975732116997108e-04
        8.2729783058273850e-05 1.2199148752013604e-04
        1.2360398423763512e-04 9.7207581953569420e-05
        5.0864754646250403e-05 1.2746011364809379e-04
        1.0397313208061851e-04 1.2265729490996372e-04
        5.9627710422331020e-05 8.3045346019668676e-05
        8.6936140746361447e-06 2.0962458362290852e-05
        5.1530553960676121e-06 2.3837215314926555e-05
        3.4157692665712051e-05 2.0594802646946639e-04
        3.3260181889454660e-05 3.6547701777740846e-06
        1.2788965115576364e-03 1.1888056934653835e-03
        1.0783258901176615e-05 2.1226632620710280e-04
        1.0817603991620291e-03 3.0959768484760175e-05
        2.6115511836581802e-05 8.4740496123069092e-04
        5.9879911043836265e-05 1.3120467160524830e-03
        3.7835890146786788e-04 1.4590176079812693e-04
        1.8339162930668864e-03 2.4398901841720848e-03
        1.0352888890356064e-04 6.1162355957109817e-04
        5.2392608090838787e-05 7.5631882962026514e-05
        3.0837123670039788e-06 1.9638988909307745e-04
        2.6572358148146356e-05 3.5408884264340125e-04
        9.2375232909287612e-04 3.7689816769796367e-06
        3.4059663013378215e-05 3.3717028201019213e-05
        1.3990944952684865e-04 2.2780606064104605e-04
        1.6198573877526483e-05 1.0009777437677614e-04
        3.3121353654150829e-06 2.3584824198757769e-04
        3.3602816701813661e-05 8.1563928457371903e-06
        5.9749517225645478e-05 5.8950036416464269e-05
        1.2485892892287695e-04 1.8301972916373295e-04
        9.4127199664829539e-06 2.9782815807756374e-03
        3.2100304449474680e-04 2.4279495025567727e-04
        3.8831931761851887e-06 5.5530038616467912e-04
        2.7410775546449770e-06 4.6337996444174769e-04
        1.3000650168688125e-05 6.7724861543645362e-05
        1.9593505650332471e-03 2.0189253898944575e-04
        1.5341431729468122e-04 4.9147311306159625e-05
        1.9479715216861838e-03 4.4542513016976402e-06
        7.4261344342075198e-05 1.3571707979458231e-05
        1.0089725534332852e-04 1.0500887167529598e-04
        9.3840371310621609e-05 2.1190202856122533e-04
        1.9176812733835588e-04 4.0372490318189640e-05
        5.4782496355279986e-04 5.1870448665391404e-04
        2.2574952744092158e-04 8.2639777295014094e-04
        2.0800337507447290e-04 7.9905082631578515e-05
        1.9672292940556318e-05 9.5117799796844279e-04
        3.8412231311904348e-04 2.7410775546449770e-06
        6.0643074956552665e-04 1.1240271145899850e-03
        8.3848158441482943e-06 1.2699314796448273e-03
        2.0328879619899154e-04 1.0928683212342263e-04
        8.5320398125329772e-05 3.3121353654150829e-06
        2.9703441364014411e-05 1.0021198594483158e-04
        1.7817547243686901e-04 1.4572664578319308e-04
        2.0129139252120871e-05 4.3479628332809828e-04
        2.4602479421930107e-04 4.7968857993142963e-06
        4.7968857993142963e-06 4.3400394877497425e-06
        2.1456080634713553e-04 1.9786504439761870e-05
        8.2189313874658939e-05 7.8077697542691473e-05
        7.1608054719830551e-05 1.4028554133651612e-05
        1.0897470400382167e-05 1.4599611944421717e-05
        2.2239002727808793e-04 1.2153797835870277e-05
        1.0554835588023166e-05 2.1229000868613667e-03
        1.1279829722049576e-03 3.2354760898110554e-04
        6.6614267616938491e-04 8.9936231932468213e-05
        8.9936231932468213e-05 7.5403459963615410e-05
        3.7631412448802318e-05 3.0487608023603736e-04
        1.9028931125757042e-04 1.6426997190679933e-05
        1.9877170674013558e-04 8.7841925015011597e-04
        7.0834997231562105e-05 1.4942246756780719e-05
        2.6536990962250720e-04 1.7131735896814903e-06
        2.7240109130791655e-04 7.3528703351091729e-05
        9.3426340792365174e-04 2.1385466687608981e-05
        5.4705355606204931e-04 1.9329658285568489e-05
        5.0191397275366000e-05 3.3057806663766987e-04
        2.4744972901888140e-05 5.0966579237534076e-04
        3.0131528948262014e-04 2.1111872967760143e-04
        1.3842469909294944e-04 3.5405586785685326e-06
        1.9443869942145214e-05 3.8903920178957977e-05
        1.5170669755191823e-05 8.7274506565072961e-06
        3.8358597027397302e-04 6.9188663863341987e-05
        2.0903721142666651e-04 1.7884455974260177e-04
        1.4730826062081859e-04 8.2706043449427423e-06
        2.0110330948718125e-04 1.3212257881189179e-04
        5.2005124108345019e-04 9.9396324418047786e-05
        1.4607547709678836e-04 9.3448901127509028e-05
        1.0222544826390522e-04 9.0312741038680233e-05
        8.2941428484683069e-05 2.0355736252300493e-04
        1.0480603486380828e-04 1.5040344709154599e-04
        3.0681210831704582e-04 6.4899656151923366e-05
        7.8873658230663689e-05 5.9879911043836265e-05
        8.0324316313231140e-05 1.3092214126079311e-04
        1.3961506503497114e-04 1.4074310734929160e-04
        2.6155260218360774e-04 2.7991611584306470e-04
        7.5113109017895538e-05 5.0788654132044689e-05
        6.7337163730731659e-05 1.0023756852205364e-04
        6.1674248402335003e-05 1.8419163932847189e-04
        8.8010584619325951e-05 7.1675203106885579e-05
        2.7398534314291775e-04 7.5379634837904885e-05
        1.3543240724200509e-04 9.4145038428338325e-05
        8.4247952063029943e-05 7.1302725604106181e-05
        1.0225318938197024e-04 4.9144529004546884e-04
        6.6242708449242623e-05 1.2128720843078791e-04
        9.1860808404884515e-05 5.2268712850135537e-05
        8.6398916678836254e-05 7.0409300219812562e-05
        3.5246577157413070e-05 3.3680581821596560e-05
        7.7395255697821491e-05 3.2883661594725321e-04
        1.0395869970313909e-04 8.8955925605072438e-05
        7.7663864861358695e-05 3.2916675997471400e-05
        5.4821552037126551e-05 6.4692984311882283e-05
        3.8294714103604939e-05 2.4187451058144127e-05
        2.2182515052470111e-04 1.4742871960087196e-04
        2.1767871448948061e-05 9.6073068058992375e-05
        3.7283384261852968e-04 8.9085027568321790e-05
        7.2826795650913871e-05 4.9715870515721012e-05
        2.5349487644681177e-05 1.2479915192460016e-04
        1.2027844477389212e-04 1.3625222003446321e-04
        8.6237914594050743e-05 1.4229491869895052e-04
        1.6683520941504710e-04 1.9930226680026173e-04
        8.0624832918374523e-05 1.7127507765069959e-04
        1.5424760641108252e-04 7.4842416510830477e-05
        6.0868414801662583e-05 3.0363834437984998e-05
        1.0792027325740050e-04 7.2038888261355708e-05
        2.7500455407910998e-05 2.6961274939009210e-04
        5.6837172897043157e-05 1.3828664240964604e-04
        7.4846584574883977e-05 1.1384763309492700e-04
        7.2289571213778655e-05 6.6242708449242623e-05
        3.9773113304237412e-05 8.0513444335602200e-05
        4.7654582326625127e-05 3.9455092828066286e-05
        7.0005341190324845e-05 1.5977127326456477e-04
        1.8140588293608095e-05 9.5937717638683220e-05
        9.5937717638683220e-05 8.6800791250020957e-05
        5.4015721583877642e-05 6.3152644825116393e-05
        1.2052704215929477e-04 1.0716405900052157e-04
        1.0185131591950282e-04 5.8852793756959763e-05
        1.0709026488726209e-04 7.0273950169075835e-05
        1.2429384325656650e-04 1.8386882463468715e-04
        1.0023756852205364e-04 2.6355029147863158e-04
        6.7824976068377076e-05 1.9437972707389431e-05
        1.2178147819153634e-04 5.3747112235554223e-05
        1.3983379142449540e-04 1.1288644469937517e-04
        8.7473360366976949e-05 1.1112775820552074e-04
        8.6952410283414668e-05 1.0682165572372488e-04
        8.8028511015226423e-05 1.3011257198695155e-04
        5.5525461143570126e-04 7.7126646534284287e-05
        9.7018411262173431e-05 3.4263472383771728e-05
        8.4865038759069679e-05 1.6903312245313429e-04
        2.5453563396878910e-04 9.5131890332857821e-05
        1.5165375802103160e-04 5.4015721583877642e-05
        9.1054974804212095e-05 2.3288198877371139e-05
        5.1462879064676902e-05 2.0731051055306434e-04
        3.1092289678248246e-04 9.4686429093592656e-05
        5.4552942873589347e-05 7.0811174790997265e-05
        5.6299954754754963e-05 8.7023732899592669e-05
        8.1695106581191907e-05 6.3689869262251609e-05
        2.4945187346637337e-04 8.2232331203113337e-05
        2.2243252534079284e-04 1.0415347789455927e-04
        6.3827302143810701e-05 5.4552942873589347e-05
        6.5840836608197981e-06 4.0891566829054111e-05
        3.6205682841232095e-05 3.1392536501056951e-04
        1.2705913534562328e-04 1.9721442575418806e-04
        1.3843261709216509e-04 9.1854483504634054e-05
        2.0361760396944845e-03 5.5871626057503740e-03
        5.8550348916142168e-05 5.6308563820904145e-04
        9.2780844078617299e-04 4.0229957924061820e-05
        4.7008629818640242e-05 1.3120467160524830e-03
        1.3092214126079311e-04 7.2485654683013840e-03
        1.3755925679030182e-04 3.1299554210311971e-04
        9.2356328961324501e-03 7.7175809802612627e-03
        5.7638739557855324e-05 2.1644614303852430e-03
        8.7381180575751925e-05 1.6666867199791654e-04
        3.3920836833735337e-05 4.9171224994499401e-04
        5.2033939363878724e-05 6.1544157493241970e-04
        6.0541099610712974e-04 4.1458799420510117e-05
        1.9887892026676599e-04 9.1805916032511488e-05
        2.6850536247585016e-04 1.6422836566521879e-03
        5.8053313272356591e-05 1.6029684011148225e-03
        3.6433489875271636e-05 2.9018302156570783e-03
        9.0549589511743338e-05 2.9654821627645312e-05
        5.6589698104865267e-05 4.7795408997322337e-05
        2.1006888628871115e-04 2.8344054138154976e-04
        4.3474420280426723e-05 8.6860774409887181e-03
        2.4411558388847169e-04 8.7928021482737778e-05
        4.2715125941278267e-05 9.1441348431884305e-04
        3.0151853809265005e-05 7.2366920501336655e-04
        2.2876151648936046e-05 2.4187451058144127e-05
        3.3435600420763296e-03 5.1745300793160694e-04
        2.3686240606293578e-04 6.0096422803545147e-05
        1.1987314608340034e-02 4.8996765469450781e-05
        1.5159274682436698e-04 2.9157787714942677e-05
        1.6550637183001377e-04 2.6238616314880336e-04
        1.2284809074253160e-04 1.0849880846586354e-04
        2.5568995281393682e-04 8.3704382221013070e-05
        2.3343877795790860e-03 2.2883662398542198e-03
        8.0624832918374523e-05 2.4658935640317851e-03
        7.1382052576085195e-04 1.5360836768428358e-04
        3.6198716573801037e-05 4.0399984764188839e-03
        3.6361690680901653e-04 8.1803864414157091e-05
        9.4926952545940080e-04 1.4287989860719436e-02
        3.2167474669181611e-05 3.4216250592982462e-03
        7.3818680452549318e-05 1.6421470747718641e-04
        1.5311133222528422e-04 3.6433489875271636e-05
        2.6410359271280409e-05 3.6457645068907317e-04
        2.9021921241058671e-04 1.8634002629877577e-04
        4.1224026119039518e-05 1.5771546501989545e-04
        3.5003353714728458e-04 5.2765745031755230e-05
        5.2765745031755230e-05 4.7740435486516748e-05
        3.6432268413409013e-04 3.7455043094569186e-05
        1.7873491194831011e-04 3.4011517365398094e-04
        6.6902576999422394e-05 3.4183095529098217e-05
        5.9806675436910317e-05 4.0464731595104848e-05
        1.0373576045578817e-04 2.2858231516314793e-04
        5.6037692412439985e-05 4.7170160749639631e-03
        1.9044977116987932e-03 4.9868312441697302e-04
        1.2193625095241571e-03 1.4382000902025244e-04
        4.0208005624809882e-04 2.1580802956127233e-04
        5.3552524949582181e-05 1.1009985408318608e-04
        2.2641125775714190e-04 6.0565969776058774e-05
        4.2249110583754239e-04 1.5585586480509142e-03
        1.7667672670800569e-03 4.4233714619575180e-05
        9.5990507139838771e-05 1.8844909929102835e-05
        5.4570704907646976e-04 2.0359919751697375e-04
        1.1774704044477495e-02 5.5043628233986813e-05
        9.8667267812644547e-04 3.2429735280413647e-05
        9.2827469251809038e-05 2.9994949035059893e-03
        3.1932701182924798e-05 2.7332689760121005e-04
        1.3724737968204438e-03 1.2112862106088086e-04
        2.5217310731936657e-04 3.8946146378973819e-05
        3.3686063532264738e-05 8.8796227347189612e-05
        4.6746367661111479e-05 3.5936457693651943e-05
        1.0610330111073454e-03 1.5585876203045700e-04
        7.6383303122111879e-04 3.2798508303415186e-04
        5.8687781443616117e-05 3.0911148148413461e-05
        3.3642122426982694e-04 1.1433403356440885e-04
        2.1486198105395236e-03 1.0058341887135677e-03
        1.4692460570526165e-04 7.0315607170339650e-04
        7.7663863523703774e-06 7.3095403555481693e-06
        3.2411186120902963e-04 1.3504660223406795e-04
        3.7288362165387265e-05 2.4696708908295744e-04
        3.6194775531763305e-03 1.4052875734335790e-04
        1.1511840112529974e-04 3.7835890146786788e-04
        1.3961506503497114e-04 1.3755925679030182e-04
        1.8100814112923316e-03 9.1307006525604003e-05
        2.4536812730722383e-04 5.1454761934314737e-04
        4.9005098498972966e-04 3.2456870748125139e-04
        2.4628181977298175e-04 3.6831515539080366e-05
        6.1674247340079576e-06 5.1523288881049419e-04
        1.1603209374842885e-04 5.5389180661403827e-05
        3.3761650558516987e-03 7.5379633539592733e-06
        9.3653486002174885e-06 8.6800789754994849e-06
        3.5232553920717946e-05 6.3958477324190617e-06
        6.3840836481121035e-05 2.7009320942040669e-05
        6.6242707308301657e-06 3.8202054788516373e-05
        8.4516559770883809e-06 3.2034630054508415e-05
        2.7671747519896606e-04 2.7511851358060364e-04
        2.0558082446693192e-06 1.0986466885704972e-04
        3.4547284295999943e-05 3.7927259403198278e-04
        1.0819717798056484e-03 1.1616291865018287e-03
        7.7663863523703774e-06 5.4703911272742583e-05
        5.4821551092899541e-06 3.7858732460397873e-04
        5.7444989063444319e-05 3.2411186120902963e-04
        5.4475488156303096e-05 1.9477581727357955e-04
        1.0940782254548517e-04 2.2406937751659153e-04
        5.4155694771359424e-04 8.9085026033952804e-06
        3.4090438299177734e-05 5.8587104684984531e-05
        2.8608282875145435e-05 3.6831515539080366e-05
        4.3923025242978777e-04 1.0055122971133774e-03
        4.6189954099774258e-04 1.7507604969724873e-04
        2.1813037578099467e-04 1.3801610310186637e-04
        1.0803728178725436e-03 4.5938688657920848e-04
        5.6988142751879765e-05 6.1099759241218404e-05
        8.6510120411547361e-05 8.1256388438368286e-05
        1.2154194201066115e-03 5.4821551092899541e-06
        2.7009320446813589e-04 3.5363384413571034e-04
        3.2491476051330623e-05 2.8379859719363158e-05
        9.7256400676319979e-04 5.1728869705516356e-04
        8.7652236033087573e-05 6.6242707308301657e-06
        1.3801610310186637e-04 2.7237744078151548e-05
        8.4454312481620388e-05 1.3504660223406795e-04
        8.7423813034676469e-05 2.0801746157604675e-03
        2.4308389590677222e-04 9.5937715986285925e-06
        9.5937715986285925e-06 8.6800789754994849e-06
        8.5824851101571703e-05 8.6738543409958465e-05
        6.5668221727379250e-05 5.7444989063444319e-05
        3.3187824756140001e-04 5.9500796993371293e-05
        3.7516785163798369e-05 6.0642912614911504e-05
        1.0579319919211663e-03 4.0029440034774588e-05
        3.6831515539080366e-05 3.8132840219796651e-04
        1.6296962314895833e-04 1.6205593060451481e-04
        5.4018641884081339e-05 1.1260574656906587e-04
        1.1260574656906587e-04 3.6374669542258158e-05
        1.6959389395847409e-04 1.4587317589585778e-03
        4.8730990751377025e-04 6.4297683107427935e-05
        7.0811173571370652e-06 1.3527502537017883e-04
        2.7237744078151548e-05 6.1328182239629508e-05
        1.2696664999836162e-03 3.4263471793629806e-06
        8.3997466170055834e-05 1.6903311954176762e-05
        5.1317708056582492e-04 8.9936467905652687e-05
        1.3596029477851146e-04 8.5824851101571703e-05
        8.8794351654627784e-05 5.4475488156303096e-05
        1.1237732325591242e-04 2.2969343536793810e-03
        5.4703911272742583e-05 8.6658250154575303e-04
        3.2263053052919519e-05 7.0811173571370652e-06
        8.6053274414725153e-05 3.4775707294411047e-05
        6.1785028236451716e-05 3.3176745676048627e-05
        8.3997466170055834e-05 8.2232329786772768e-06
        8.7423813034676469e-05 2.2315568489346242e-04
        7.0338449485917874e-04 3.2263053052919519e-05
        2.7466167214262430e-05 3.5112118957947649e-04
        2.7237744078151548e-05 1.6296962314895833e-04
        2.9051927964790524e-04 9.8596095888516476e-05
        2.0664952518126604e-04 1.8168199579777469e-04
        2.2963600201019417e-04 4.2134197556819631e-04
        2.3248780231341210e-04 2.1204678406650912e-04
        2.3416864735164810e-04 1.2939535390384376e-04
        1.6416263236044345e-04 1.4590176079812693e-04
        1.4074310734929160e-04 3.1299554210311971e-04
        9.1307006525604003e-05 2.8800857736813705e-04
        5.6239792847499097e-04 6.2068367909477837e-04
        1.0914055431689943e-04 1.1441092532528011e-04
        1.0005497741079165e-04 2.2871645797934128e-04
        1.3876705784299833e-04 2.1660326585389239e-04
        1.8472071657756235e-04 1.4343879362883248e-04
        2.0825245937177849e-04 1.6960417708697384e-04
        2.5984351232630470e-04 2.0999027317415578e-04
        1.9924752607812895e-04 1.7811818487559151e-04
        2.2341812569823136e-04 5.0449099379514255e-04
        1.4904609286985494e-04 2.8725749604969586e-04
        2.0485075566072748e-04 1.1427882868753268e-04
        1.6113981839892700e-04 1.2516318164152319e-04
        8.2140379517127058e-05 7.3657559262730286e-05
        1.7081354966205539e-04 7.5389186313801410e-04
        1.0554774516822113e-04 5.7142539677104074e-05
        1.7474369460040214e-04 1.0745671930004452e-04
        1.2334849113930773e-04 1.0634310523375824e-04
        7.9511557423507572e-05 1.4512471344465573e-05
        5.1765076252455373e-04 2.3352686531162602e-04
        4.8690022797536099e-05 1.8955820687788856e-04
        6.7625857234034754e-04 2.0044131049435504e-04
        1.6704221949139026e-04 1.0520915915405478e-04
        5.8382215627014424e-05 2.6062228856020520e-04
        1.9589243948565124e-04 1.8351384301014406e-04
        1.2064711511571084e-04 3.0020891806192005e-04
        2.6268683051625086e-04 3.2535537589495865e-04
        4.8374902116288254e-05 3.0396292007582571e-04
        2.0927698597928698e-04 1.6825159206647182e-04
        1.2697660897542412e-04 1.3743328153031792e-04
        8.4654510817436398e-05 1.4056582736353689e-04
        7.8843858735238616e-05 4.7479779381410505e-04
        1.2455786371438928e-04 3.3385095441529214e-04
        4.8676934645070017e-05 1.4992412249423791e-04
        1.5918191556216281e-04 1.4904609286985494e-04
        7.2860632929321045e-05 9.6414437296497694e-05
        1.0842483417847855e-04 6.4800840191074974e-05
        1.4753469319254303e-04 1.0340073205467607e-04
        3.0407468670879323e-05 2.1585986303463995e-04
        2.1585986303463995e-04 1.9530177881752105e-04
        1.3108116451596651e-04 1.3211612648885243e-04
        2.7104199898866064e-04 1.5488860717661568e-04
        1.8925616594486772e-04 1.2576723628947084e-04
        2.3762731982684041e-04 1.5146483802001804e-04
        1.4995594498643091e-04 3.4581406556966087e-04
        2.2220875312314981e-04 5.9781635942462129e-04
        2.0140120758234479e-04 4.7975549453633430e-05
        2.2531343781373756e-04 1.1413560916040936e-04
        2.0022228834935054e-04 2.3565475917671383e-04
        1.7686041275920663e-04 7.0445639887820635e-05
        1.0874912728789517e-04 2.3369717488849366e-04
        1.9606559344687653e-04 2.5360419120231390e-04
        5.6381135721827926e-04 1.6688340472370864e-04
        6.1980031307891094e-05 7.7092812273344465e-05
        1.5377666432515934e-04 3.8683222746437696e-04
        3.4835944499432255e-04 2.0406942833047143e-04
        2.5935350637772408e-04 1.1155804935343637e-04
        1.9306030679315327e-04 6.8105594511545082e-05
        1.0248837970908674e-04 1.6040010107894935e-04
        3.5125133420366828e-04 1.0478362376119027e-04
        1.3243375591334393e-04 1.5932514206011723e-04
        1.1669757394856752e-04 1.9064156153211843e-04
        1.7716243975056525e-04 1.3997643041807988e-04
        3.5592127665222005e-04 1.9153044864685592e-04
        3.2766578141202871e-04 1.9923286859738177e-04
        5.7141292005297574e-05 1.1941834620096098e-04
        3.1011528960958292e-05 4.5098832965431799e-05
        9.8497150335726685e-05 3.2701673685480852e-04
        1.2918261727738137e-04 4.8838691669309659e-04
        2.5940163192273509e-04 8.8199713012117624e-05
        3.0543436693990884e-03 9.5150389664148960e-03
        5.5023324727190495e-05 7.0050872202635035e-04
        1.1437688165536904e-03 4.5551364312171371e-05
        4.9918058296477270e-05 1.8339162930668864e-03
        2.6155260218360774e-04 9.2356328961324501e-03
        2.4536812730722383e-04 5.6239792847499097e-04
        1.3659539188644402e-02 1.1667347026705729e-02
        8.4722087265434753e-05 2.8659265897494918e-03
        1.0029469073638683e-04 1.6337007114178973e-04
        3.0837124201167502e-05 8.9587838871084337e-04
        5.4486521490808401e-05 1.2422423623744765e-03
        1.1815297041476869e-03 3.7689817418952443e-05
        3.1904845390456254e-04 2.1231808451217414e-04
        2.6600624249775446e-04 2.0717249568262511e-03
        5.6367209281557834e-05 1.7294331063213194e-03
        3.3121354224621312e-05 3.6382725854073950e-03
        2.1117596950044723e-04 2.8754663720354125e-05
        6.9402530811837502e-05 6.1407722582325656e-05
        4.5874539876019304e-04 4.1382904456090179e-04
        4.1317935144197102e-05 1.3377008765195013e-02
        4.3266818462472858e-04 1.5715117289651813e-04
        3.8831932430679348e-05 1.2918524468959365e-03
        2.7410776018563275e-05 9.9572015376754109e-04
        2.4387971642375183e-05 4.3537414033396719e-05
        6.0933051532504560e-03 6.5073740458684230e-04
        2.4262712407657256e-04 6.8998992391787039e-05
        1.7544398162813307e-02 4.4542513784160895e-05
        1.4966468470621985e-04 3.0098549848433219e-05
        2.9117159600110850e-04 3.8393977063384550e-04
        1.4510748160430527e-04 1.6507747970260470e-04
        4.0658406941381875e-04 8.6869303601637589e-05
        3.4031600734059082e-03 3.8512531157639234e-03
        1.4512470634886476e-04 4.7986141490411645e-03
        7.1556076892974481e-04 1.5329280243146450e-04
        3.8295129526912455e-05 5.0348523911040877e-03
        4.3617926441831805e-04 7.9062786623455361e-05
        1.0902467021581923e-03 1.9632905946409731e-02
        3.1038893743807935e-05 5.2285657169715031e-03
        1.3175435780041596e-04 1.9279633846190462e-04
        1.5463668731844704e-04 3.3121354224621312e-05
        3.2988092888328394e-05 4.9092694431767899e-04
        4.1819573775835181e-04 6.9381134384226273e-04
        4.2863592721243586e-05 2.8164930389444002e-04
        3.6454600937872402e-04 4.7968858819341610e-05
        4.7968858819341610e-05 4.3400395625010479e-05
        3.6676173177169647e-04 3.9437244538639360e-05
        1.7613511525569665e-04 3.4162699364742008e-04
        8.2369346464076067e-05 3.4667011469052594e-05
        5.6165439738917400e-05 4.0377589675110630e-05
        1.6433890734556162e-04 2.2368475192147420e-04
        5.2739091556313174e-05 7.9173799403018594e-03
        2.4131246802395305e-03 6.3321031424576823e-04
        2.3462573997785653e-03 1.4798576488439909e-04
        4.0624581211224546e-04 2.1273785172322800e-04
        5.9458524435650802e-05 1.9706047352866782e-04
        6.2942174789100457e-04 5.8651442452435155e-05
        4.1895054685406720e-04 2.6901768171755862e-03
        1.7682655523674937e-03 4.3803937857714856e-05
        1.7166364778887919e-04 1.7131736191885864e-05
        7.9876420594085745e-04 1.9514754081204370e-04
        1.5016750818820502e-02 5.5426867292510075e-05
        2.3676525862933191e-03 3.4868782918019985e-05
        2.1863397482619219e-04 3.8677699227122075e-03
        3.6212668713483877e-05 5.3467027908287931e-04
        1.5002083641684309e-03 2.9643861329396471e-04
        2.5115873790303416e-04 3.5405587395498633e-05
        3.6010899503458645e-05 2.1137773904308767e-04
        4.6088167881168666e-05 3.4465241926412161e-05
        2.0632034180187468e-03 1.5174714518703322e-04
        1.0151770145056607e-03 3.3734449897330110e-04
        1.0004164411245994e-04 2.9896778732081030e-05
        3.3780529797937273e-04 3.8500091053081430e-04
        2.7076095284838016e-03 1.0150523238896295e-03
        1.2558281504047256e-04 6.0606028024303945e-04
        2.5121309117715472e-04 7.3580631042051902e-05
        3.9423971121178968e-03 8.2291661573004327e-03
        3.8496481934246856e-05 8.4049102943061741e-04
        1.9438065528144725e-03 5.4743259900668370e-05
        5.1880788059277582e-05 2.4398901841720848e-03
        2.7991611584306470e-04 7.7175809802612627e-03
        5.1454761934314737e-04 6.2068367909477837e-04
        1.1667347026705729e-02 1.1372280130852655e-02
        1.4951804809682607e-04 2.6842779533275468e-03
        1.3018001637946325e-04 1.9981856528132304e-04
        1.8502273670896159e-05 9.9039305496823635e-04
        5.4621865849979311e-05 1.4404698707333329e-03
        1.8115908587611335e-03 2.2613889412721744e-05
        3.0766198838788833e-04 2.0230215836296436e-04
        3.5771430375058959e-04 1.6068883971628021e-03
        4.4785301244088904e-05 1.7928702246434876e-03
        1.9872811622020014e-05 2.5522994621648026e-03
        2.0161688938740243e-04 2.2735286054052426e-05
        9.6466401711844041e-05 9.1669516994456529e-05
        5.2138389211157737e-04 5.3776676026425678e-04
        3.0273248562141667e-05 1.3418677797342753e-02
        6.5012579139154365e-04 3.3003770228090388e-04
        2.3299158388283671e-05 1.6850085804307341e-03
        1.6446464855756357e-05 1.3262405187133032e-03
        2.5597759541857827e-05 9.1912312601789489e-05
        7.3032599264986758e-03 7.7900245674755036e-04
        3.6013429918492691e-04 8.5259302447659004e-05
        1.4344544293851295e-02 2.6725507043001348e-05
        1.9159533379767187e-04 2.9024106308121484e-05
        3.5141079018166747e-04 4.2773249807019409e-04
        1.9544510845720875e-04 3.0189856149724571e-04
        5.2903889605010479e-04 8.5016512457826866e-05
        3.1200979665181082e-03 3.4795235593664039e-03
        3.0637436035929611e-04 4.5768686832540440e-03
        8.7386918508622076e-04 1.9925469294709180e-04
        3.9424543006203730e-05 4.5141752662287635e-03
        7.2170841238240833e-04 6.8098475460648443e-05
        1.5543964977670355e-03 1.4073235809151711e-02
        2.4105824005176280e-05 5.4312756250765523e-03
        2.7642220719402969e-04 2.6116668924738027e-04
        2.0554351295912145e-04 1.9872811622020014e-05
        4.7205297392579129e-05 5.5390721632828251e-04
        5.3490428795075244e-04 7.4334448378082785e-04
        4.2165620796905459e-05 5.9114120943297140e-04
        5.5701211886019725e-04 2.8781313969687130e-05
        2.8781313969687130e-05 2.6040236178985401e-05
        5.2544661954414607e-04 4.0109811981765657e-05
        2.1296008001214642e-04 3.9489842514808023e-04
        1.1521147099007316e-04 3.1765183154596204e-05
        3.9181750909808783e-05 3.5191529920859861e-05
        3.1242039834759666e-04 2.0167575291764236e-04
        3.7125942094668981e-05 8.6140593562895138e-03
        3.2457863552406234e-03 8.7298857123148995e-04
        2.7327878546705630e-03 2.0703544779361539e-04
        4.6529549502146177e-04 2.5010003793509127e-04
        6.8570045713616488e-05 4.1429066486171228e-04
        7.2173256277492171e-04 4.6155841083666779e-05
        5.6097324647534511e-04 3.2445290852141512e-03
        1.8239015910812820e-03 3.7247338735999663e-05
        3.6067514730483481e-04 1.0279041243017981e-05
        9.7579233048471171e-04 2.1340255759350101e-04
        1.0733433971466241e-02 4.9703585193448720e-05
        2.6229529083565593e-03 3.7368735135290937e-05
        2.2253915872271000e-04 2.8667056900377563e-03
        4.3657554687172393e-05 8.8238579555469565e-04
        1.7224911158229559e-03 4.2821410897005732e-04
        3.4880580140292248e-04 2.1243351461597889e-05
        3.8054005055079875e-05 2.0722043972168255e-04
        3.8617876687123518e-05 2.6161632820316083e-05
        2.2322352939906690e-03 1.8736232141451561e-04
        1.1332907963773082e-03 4.5955548163515748e-04
        2.0256969471786485e-04 2.3420555029614353e-05
        4.9710778233559756e-04 4.5209551822573014e-04
        2.4747298491943409e-03 1.0894740315287453e-03
        1.3724420251216840e-04 1.9642851737831831e-04
        6.6014281654252095e-05 6.2131090818963019e-05
        8.7074828066793439e-05 3.6281176587216191e-05
        9.4628082750690390e-05 9.8313261877221126e-05
        9.7427718021518149e-04 8.2879493363783533e-05
        8.9214437203275756e-05 1.0352888890356064e-04
        7.5113109017895538e-05 5.7638739557855324e-05
        4.9005098498972966e-04 1.0914055431689943e-04
        8.4722087265434753e-05 1.4951804809682607e-04
        1.6361938292731621e-04 9.0958021242978627e-05
        9.2488472948977669e-05 9.0744886564781628e-05
        5.2423108380120643e-05 1.5534283836272445e-04
        9.6980824224473594e-05 2.6162050095120473e-05
        9.0702941468040477e-04 6.4072686236607557e-05
        7.9605460279003233e-05 7.3780668675449933e-05
        7.7153713290650176e-05 5.4364703797765181e-05
        9.8001122015270946e-05 7.2562354504893188e-06
        5.6306299215409718e-05 1.0239446977188823e-04
        7.1839073257805395e-05 4.9971361391767586e-05
        1.2886865238984210e-04 1.1527747911571065e-04
        1.7474369460040214e-05 4.4557714506698030e-05
        7.1328921687096875e-05 1.1129527542313788e-04
        3.0384058864717082e-04 3.1395971098067727e-04
        6.6014281654252095e-05 2.0337260498049555e-05
        4.6598316776567342e-05 1.0547048549165323e-04
        4.3636420892815609e-05 8.7074828066793439e-05
        1.8395664077163826e-05 9.9333558351945902e-05
        4.0674520996099111e-05 1.2600576602643087e-04
        1.5677428554300660e-04 7.5722269443714157e-05
        6.7445730851807800e-05 5.3344403331657985e-05
        2.0847411399930614e-05 9.0744886564781628e-05
        1.7628926260914758e-04 3.2090381938299503e-04
        1.4665516304229330e-04 1.5420842239719131e-04
        7.5524253063954765e-05 6.1521933068454243e-05
        2.9024941269772953e-04 1.2529760124210224e-04
        3.9753227382216690e-05 7.4701966302297119e-05
        6.8367023793265702e-05 2.3710303604790954e-05
        3.2653058928494572e-04 4.6598316776567342e-05
        7.2562353174432381e-05 1.1568862848361310e-04
        5.3854552227056661e-05 1.8905814644631154e-05
        2.6316608078847292e-04 1.7281720782276466e-04
        7.8075006232108078e-05 5.6306299215409718e-05
        6.1521933068454243e-05 9.1978320385819131e-06
        5.0892657008535331e-05 3.6281176587216191e-05
        7.6133410814463540e-05 5.6261333816416204e-04
        6.5306121050095079e-05 8.1547055696647771e-05
        8.1547055696647771e-05 7.3780668675449933e-05
        6.2542234865022245e-05 7.0308619210910240e-05
        1.1353389605766662e-04 4.3636420892815609e-05
        1.5308910972104553e-04 6.1110787677545980e-05
        9.6569678168334928e-05 7.0818770116388356e-05
        3.2182511832591480e-04 1.1792724381428390e-04
        9.0744886564781628e-05 1.2876964421435063e-04
        5.1303800385767097e-05 4.3537414033396719e-05
        1.4512470900978638e-05 6.7856874232636623e-05
        6.7856874232636623e-05 8.6861695729492552e-05
        1.0761010027000428e-04 3.9377831224497663e-04
        1.4032022520786000e-04 1.0188431820117971e-04
        6.0189495401318481e-05 3.8222773175308785e-05
        9.1978320385819131e-06 7.6643561719941656e-05
        3.4298466076539938e-04 2.9123949991836972e-05
        4.7009463497936412e-05 1.4367814651561079e-04
        1.3786846890268423e-04 9.7490976460412517e-05
        4.4047562939586568e-05 6.2542234865022245e-05
        8.7782988670950454e-05 1.8395664077163826e-05
        6.5915276139682242e-05 6.2648798509034502e-04
        2.0337260498049555e-05 2.5161550063099788e-04
        5.1912956809412123e-05 6.0189495401318481e-05
        6.4483832957976626e-05 7.3270517104741413e-05
        8.0526752555230732e-05 5.9679343830609962e-05
        4.7009463497936412e-05 6.9897477840160857e-05
        7.6133410814463540e-05 1.1823937900523303e-04
        1.9837011413361777e-04 5.1912956809412123e-05
        1.1139428626674507e-05 9.4331065512973968e-05
        9.1978320385819131e-06 5.1303800385767097e-05
        3.6065454529337834e-05 1.7075392710773688e-04
        2.9799126625367747e-05 7.3095403555481693e-06
        9.1762081152238842e-04 1.7952117482539220e-03
        1.5116531523672809e-05 1.6056121190552569e-04
        8.7622180245384637e-04 2.9669606167434081e-05
        2.6431078558441915e-05 6.1162355957109817e-04
        5.0788654132044689e-05 2.1644614303852430e-03
        3.2456870748125139e-04 1.1441092532528011e-04
        2.8659265897494918e-03 2.6842779533275468e-03
        9.0958021242978627e-05 7.5126947766495852e-04
        4.6735337899606250e-05 6.0213617108839114e-05
        6.1674247340079576e-06 1.6006633787958693e-04
        2.7344771181571023e-05 2.5787102532093519e-04
        7.6189235790967771e-04 7.5379633539592733e-06
        3.1398088873214858e-05 3.0712819248496855e-05
        1.0416858770194990e-04 4.7287740477202917e-04
        1.9497175197692122e-05 7.2424162784796788e-05
        6.6242707308301657e-06 7.9029879716091534e-04
        3.0484396250085751e-05 9.8627994127939585e-06
        5.4999172847118420e-05 5.3400211228756000e-05
        9.1675221002137264e-05 1.3431795098613566e-04
        1.2375453654285486e-05 3.0653821754166046e-03
        2.6268524288272838e-04 2.0824049939783398e-04
        7.7663863523703774e-06 3.9533598002968476e-04
        5.4821551092899541e-06 3.4001684526153807e-04
        1.3101327780015406e-05 5.8049885377862293e-05
        1.4059307329057932e-03 1.5271361357546752e-04
        1.1182836440157375e-04 4.6694732382875873e-05
        3.5763763840869702e-03 8.9085026033952804e-06
        5.7472539868936483e-05 1.4243443401555617e-05
        7.4023124717901553e-05 8.2246357381836484e-05
        8.4480962162356466e-05 1.8515456540259089e-04
        1.5256508647512197e-04 4.2045061781665065e-05
        7.0850883758771474e-04 6.9193317899425696e-04
        1.9349960846515302e-04 9.2499234876047137e-04
        1.4930628226056029e-04 6.2310030169262696e-05
        1.9994626453755527e-05 1.2886142580541731e-03
        3.0879492394624355e-04 5.4821551092899541e-06
        4.3483910008107127e-04 3.9042909814873826e-03
        1.0319645409616167e-05 1.2161429391991504e-03
        1.7437807926969776e-04 9.6023929091128128e-05
        6.6690674286768944e-05 6.6242707308301657e-06
        2.7156951925942554e-05 7.2652585920907666e-05
        1.3107942321977233e-04 1.1231841215013361e-04
        2.0908319076884635e-05 3.7294360959753964e-04
        1.8019921482550615e-04 9.5937715986285925e-06
        9.5937715986285925e-06 8.6800789754994849e-06
        1.5597115793588930e-04 2.0223049452166631e-05
        6.6878492655423542e-05 5.8655259991488611e-05
        6.5816271730232670e-05 1.5157135709942379e-05
        1.5344954522083913e-05 1.6299251331482591e-05
        1.9323058673106016e-04 1.7857609393060131e-05
        1.4659684897365909e-05 1.8420954445656557e-03
        8.0137860028591131e-04 2.3327341180782134e-04
        4.8129324842771160e-04 6.9472356213681248e-05
        6.9472356213681248e-05 5.9756771112016906e-05
        3.6562906042890420e-05 2.6145290024070025e-04
        1.5431516080014737e-04 1.9954021823999021e-05
        1.4374291814924650e-04 6.3269594281342365e-04
        5.0619845647910296e-05 1.6984520956200594e-05
        2.2759046592098206e-04 3.4263471793629806e-06
        1.9820925355036817e-04 6.2457244165649967e-05
        3.1419441882634246e-03 2.3420973947860853e-05
        4.0412308361180416e-04 1.9309357143779869e-05
        4.4311597969833320e-05 8.5198706821376841e-04
        2.3690000689054593e-05 4.3436152396167334e-04
        2.1460871910820387e-04 1.7911666128388778e-04
        1.0119908683415147e-04 7.0811173571370652e-06
        1.9537780456933319e-05 3.4636616925693960e-05
        1.7441366953022802e-05 1.1004915034334170e-05
        2.8485175881918937e-04 5.3777165190150482e-05
        1.5608166404582579e-04 1.3688890418269318e-04
        1.2691686971752443e-04 1.0091222411205063e-05
        1.4195613736465740e-04 1.0695285755464405e-04
        6.7579592296417815e-04 7.5492567444847866e-05
        1.1850394779328055e-04 1.1794424946962219e-04
        7.1582040021994338e-05 6.8384118083581651e-05
        4.3537414033396719e-05 3.5357924517837253e-05
        7.5581405403457976e-05 1.4592209161287130e-04
        5.2220142619510755e-04 5.6515673586524269e-05
        6.4080291791124787e-05 5.2392608090838787e-05
        6.7337163730731659e-05 8.7381180575751925e-05
        2.4628181977298175e-04 1.0005497741079165e-04
        1.0029469073638683e-04 1.3018001637946325e-04
        9.2488472948977669e-05 4.6735337899606250e-05
        7.2255863537343864e-05 7.2383479058652503e-05
        4.3171972606927990e-05 1.8662891319676895e-04
        7.0476140074342947e-05 3.4067342997947520e-05
        4.5351470734020238e-04 5.2765742828558837e-05
        9.9992111843453472e-05 6.0760552080983340e-05
        6.1190747867815313e-05 4.4770933576134334e-05
        7.6011596783897163e-05 4.8571353973247955e-04
        4.6369894545340677e-05 8.1977253686676136e-05
        5.9161591111776997e-05 3.8805281079748146e-05
        8.2651071132556868e-05 7.1458339941719677e-05
        1.4390657535642663e-05 2.7304166365816761e-05
        5.6393860553803496e-05 1.2765780085787425e-04
        1.5631743974289835e-04 1.5760801912939709e-04
        5.4364703797765181e-05 1.2053121112103841e-05
        3.8375085292916174e-05 7.1208906248172710e-05
        3.1240665410959222e-05 4.3537414033396719e-05
        6.2106169921590936e-05 1.3424021423790616e-04
        2.4106242224207681e-05 8.4988610975321585e-05
        2.0267747999947014e-04 6.2359517456582469e-05
        5.3195938615390809e-05 3.9235474663383725e-05
        1.4820851119278243e-05 8.9600815282881661e-05
        1.2483504071828986e-04 1.7741232810836519e-04
        9.8082881197692059e-05 1.1290953954456616e-04
        1.2950227852654111e-04 1.2501377330141009e-04
        1.4512470634886476e-04 8.0494300484338738e-05
        1.4856409677115886e-04 5.6824056340635469e-05
        4.9259438801265354e-05 1.2483315441453945e-05
        1.8048263086670202e-04 5.5592421517145331e-05
        3.6281176587216191e-05 1.5084079362267990e-04
        4.2003203018160833e-05 4.7656561496932018e-05
        1.3221120403329492e-04 1.3215022197108576e-04
        5.7254248053689857e-05 4.6369894545340677e-05
        3.8927094112468918e-05 7.4096424555266055e-05
        3.4868783468819083e-05 1.8140588293608095e-05
        5.5655287084483513e-05 2.8256299636019794e-04
        3.2653060525047540e-05 6.7156400364201500e-05
        6.7156400364201500e-05 6.0760552080983340e-05
        4.4462553690449930e-05 5.0858399770471697e-05
        8.8803293350333482e-05 1.0011001030787585e-04
        9.7902117831161900e-05 4.5631320743405493e-05
        7.7180366372664320e-05 5.3626129995829996e-05
        1.7347583216051213e-04 1.4642096085800454e-04
        7.2383479058652503e-05 1.0761378539425950e-04
        4.5381890973346579e-05 2.1768707016698360e-05
        5.8908246055381405e-05 4.6491710113873044e-05
        1.3257838930281422e-04 8.6402893344468974e-05
        7.4534449845257197e-05 1.9751731976154678e-04
        9.0518267077547838e-05 7.9209523128702635e-05
        6.6785157114375307e-05 7.1391560831604947e-05
        5.5618183883368241e-04 5.8423017309841812e-05
        1.7212049402175815e-04 2.3984429960469903e-05
        6.6105531775668318e-05 1.1832318222355399e-04
        2.4110759282922447e-04 7.3243870964931649e-05
        7.6188446630919243e-05 4.4462553690449930e-05
        6.5249057306114360e-05 1.0454159316698850e-05
        4.4892746941470308e-05 3.3360214701879038e-04
        3.0474783499179491e-04 1.3208938681427630e-04
        4.0404242048954489e-05 4.9567820890146150e-05
        4.6061516862852666e-05 5.7992821523009840e-05
        6.1620939248254499e-05 4.6800090332172649e-05
        1.8662688341306781e-04 5.7562630142570653e-05
        1.9339397687831677e-04 9.5810098916332583e-05
        1.0232587531619757e-04 4.0404242048954489e-05
        6.8260415914541902e-06 4.7165532756486984e-05
        2.2444415882578582e-05 3.2085926862880849e-04
        2.5739268884164904e-04 3.0125618375224819e-05
        1.6697730222858462e-04 1.5715511355263515e-04
        1.0245306611297693e-04 4.7569553071389811e-05
        2.2140250472744302e-04 1.0013217855191992e-04
        9.1468262869602861e-05 1.1988195264091284e-04
        1.5385651593215947e-04 7.5631882962026514e-05
        1.0023756852205364e-04 1.6666867199791654e-04
        3.6831515539080366e-05 2.2871645797934128e-04
        1.6337007114178973e-04 1.9981856528132304e-04
        9.0744886564781628e-05 6.0213617108839114e-05
        7.2383479058652503e-05 2.1808800737376451e-04
        1.3259962832884095e-04 5.1859235259033574e-05
        1.7350090681797893e-04 4.9795946466528740e-05
        6.3405931210298101e-05 1.6206620789060988e-04
        2.0135498966224880e-04 1.8662169311440407e-04
        1.9021803833021232e-04 1.5703383782934583e-04
        2.1198342669694780e-04 6.9108290355662470e-06
        1.4242181700479042e-04 2.6057001077579259e-04
        1.8171059877642934e-04 1.0844726728442152e-04
        1.4645305872462364e-04 1.1207538482487997e-04
        5.0707580965805128e-05 5.3916684818040820e-05
        1.6246933206998465e-04 2.3193807871675192e-04
        5.7010352402228246e-05 2.2245436457276301e-05
        1.6697730222858462e-04 6.1093472042847267e-05
        1.1786633178099623e-04 4.8004456573544688e-05
        7.4472710797092369e-05 4.8374903003262125e-06
        1.4078253770379593e-04 1.3861470497610558e-04
        4.4094489375131091e-05 1.7511340353547802e-04
        1.4165234408397911e-04 1.9153280098629932e-04
        1.5915484825022665e-04 9.9028196020886563e-05
        4.1288509702270166e-05 2.1808800737376451e-04
        1.5869400608465673e-04 1.4751522292875019e-04
        7.2293981906932411e-05 2.8235129835568973e-04
        7.9963393231613484e-05 8.5383003017879856e-05
        1.6124966879332847e-05 3.7795027883528575e-05
        8.4173630516712783e-05 1.5955797242960142e-04
        1.1907570435607778e-04 9.0720632410134892e-05
        3.1155997451632407e-05 1.1786633178099623e-04
        5.6092880569365029e-05 1.1132432499262791e-04
        1.1826945596037100e-04 1.2097757154757023e-04
        1.9423568199498486e-05 9.6059111368647224e-05
        1.5013889443606345e-04 1.4242181700479042e-04
        6.5859887855349714e-05 1.1821926334086095e-05
        8.7891244725807344e-05 2.0156208599166059e-06
        1.3872009524189724e-04 4.0862757258913578e-05
        2.3151232887774802e-05 2.0626608400022353e-04
        2.0626608400022353e-04 1.8662169311440407e-04
        1.2386552973772346e-04 1.2398679869405252e-04
        2.5777991332477819e-04 8.0980415653283846e-05
        1.7181479252891083e-04 1.1867258013974576e-04
        2.2631359906541776e-04 1.4322806536353996e-04
        1.1394379084253927e-04 2.8033567738490142e-04
        2.1158030251757303e-04 2.1106090576062216e-04
        1.1967871015689321e-04 2.8449564574929015e-05
        3.9852478683809825e-05 1.0634214923582759e-04
        1.0634214923582759e-04 2.0826581869781504e-04
        1.6448495304077299e-04 2.6679803058671909e-05
        3.1811722366023576e-05 2.2180562890681779e-04
        1.7176713437719055e-04 6.5496063646026882e-05
        1.1821926334086095e-05 1.5796136191138468e-04
        2.3857933618262302e-05 7.3666462438342836e-05
        8.4576754733044804e-05 3.6992890240905015e-04
        7.2736406523423271e-05 1.9274217356138088e-04
        4.1183125216526142e-05 1.0434241457519332e-04
        1.6818667480366617e-04 3.6659262380555145e-05
        9.4923343274701117e-05 5.8821041534116558e-05
        4.1570359256139977e-05 6.2010947571061151e-05
        1.2637377133477922e-04 1.5224401921466041e-04
        1.0925351568012831e-04 1.6738042640795938e-04
        1.6778355058733415e-04 1.3300275250821572e-04
        7.8069049282897615e-05 1.8330720929464608e-04
        1.5173550495428020e-04 1.6848442236204152e-04
        3.5036716096679683e-05 1.1335836162239626e-04
        2.9748433938944609e-05 5.2406145905727129e-06
        5.0868153689367820e-05 2.8570839200433976e-05
        1.6035304839548403e-04 1.2334849468015915e-05
        1.0484621676024129e-04 9.8678795744127322e-05 0. 0.
        1.3876705784299833e-04 5.2423108380120643e-05
        3.0837123670039788e-06 7.4009094683584638e-05
        9.5595085236070340e-05 3.0837123670039788e-06
        6.1674248402335003e-05 3.3920836833735337e-05
        6.1674247340079576e-06 1.3876705784299833e-04
        3.0837124201167502e-05 1.8502273670896159e-05
        5.2423108380120643e-05 6.1674247340079576e-06
        4.3171972606927990e-05 1.3259962832884095e-04
        8.3260234705798998e-05 2.7753411568599666e-05
        1.0792993576634168e-04 1.8502273670896159e-05 0.
        1.0176250625218430e-04 1.2643220731272699e-04
        1.1718106729051263e-04 1.1101364627439866e-04
        8.6343945213855980e-05 1.3259962832884095e-04 0.
        8.9427655721912962e-05 1.5110190837326967e-04
        1.1409735678245565e-04 6.7841673667470674e-05
        8.9427655721912962e-05 6.7841673667470674e-05
        2.7753411568599666e-05 2.4669698936031830e-05
        1.0176250625218430e-04 1.5418562100583751e-05
        2.1585986303463995e-05 3.0837123670039788e-06
        1.0484621676024129e-04 9.2511368354480797e-06
        7.4009094683584638e-05 6.1674247340079576e-06
        4.6255687364006679e-05 0. 6.1674247340079576e-06
        7.7092805191641620e-05 1.8502273670896159e-05
        1.0792993576634168e-04 1.8502273670896159e-05
        1.2026478629661302e-04 9.5595085236070340e-05
        6.1674248402335003e-05 2.1585986303463995e-05
        1.3259962832884095e-04 9.5595085236070340e-05
        8.3260234705798998e-05 3.7004547341792319e-05
        1.7577160943381236e-04 2.7753411568599666e-05
        4.0088262098871008e-05 0. 3.0837123670039788e-06
        4.0088262098871008e-05 9.5595085236070340e-05
        7.4009094683584638e-05 3.0837123670039788e-06 0.
        7.4009094683584638e-05 0. 3.3920836833735337e-05
        7.4009094683584638e-05 1.8502273670896159e-05
        3.0837123670039788e-06 5.5506823137199332e-05
        8.9427655721912962e-05 8.9427655721912962e-05
        4.0088262098871008e-05 3.0837123670039788e-06
